0.005308
0.002303
-0.002966
0.014328
-0.006124
0.005634
0.012321
0.006560
-0.033843
0.011749
0.022795
-0.001532
-0.003436
0.017618
0.003415
0.003631
-0.004418
0.021048
-0.020678
0.019754
0.003503
0.008862
-0.011816
-0.018820
-0.001298
-0.001413
0.005343
0.019173
0.020650
0.021887
0.008797
0.007030
0.019685
0.008512
-0.000291
-0.002389
-0.001807
0.007593
0.009031
0.018060
0.005675
0.024115
-0.010628
-0.016686
-0.019693
0.017070
-0.002512
0.003922
-0.011115
0.020345
0.018500
0.015921
0.013352
-0.026569
0.002739
-0.016658
-0.016391
-0.009790
0.022648
-0.001205
-0.017543
-0.007176
0.003049
-0.005514
0.011001
0.003967
0.011149
-0.018077
0.005621
-0.006212
0.016835
-0.020208
0.012688
0.005403
0.002229
-0.020386
-0.019442
0.024244
0.008995
-0.044347
0.012572
0.029560
0.002832
0.004209
-0.010743
-0.004565
0.000993
-0.000686
-0.025352
-0.002478
0.000457
0.004945
-0.007574
-0.005149
0.003015
-0.007791
0.016453
-0.016154
-0.001585
0.026067
-0.017784
-0.008442
0.017621
-0.002897
-0.000963
-0.010355
0.027132
0.006082
0.005469
0.013340
-0.002739
-0.012344
0.007769
0.020379
0.003125
-0.048144
-0.024820
-0.003634
0.012641
0.008013
-0.006397
-0.006912
-0.008188
-0.017965
0.000923
0.027504
-0.015397
0.021384
-0.028359
-0.005622
-0.023695
0.016558
0.000301
0.023171
0.013031
0.004959
0.008338
-0.054975
0.001191
-0.006083
-0.021634
-0.004054
0.000000
-0.001710
0.028204
-0.019118
0.003101
0.011338
0.023565
-0.006710
-0.004111
0.015026
0.008748
-0.006727
-0.006938
0.003761
-0.015408
0.006062
-0.002523
-0.024672
0.031663
-0.009447
0.027640
0.013169
0.016729
0.011142
-0.002452
-0.000548
-0.009049
-0.008148
0.008183
-0.001200
0.014935
0.018243
-0.081445
0.040420
0.010628
0.005437
0.015682
-0.028867
0.007378
-0.003192
-0.004010
0.009308
-0.037042
0.007791
0.005851
0.022162
-0.000139
-0.024284
0.013623
0.002855
0.016306
-0.017798
0.015951
0.013270
-0.008778
-0.016068
-0.014514
0.006337
0.004428
-0.000576
-0.000492
-0.013711
0.016989
0.015126
0.017654
0.013693
0.003635
-0.007710
0.024125
0.007319
0.017738
0.010842
-0.009786
0.024951
-0.009400
0.013369
0.008005
-0.021128
-0.018924
0.006101
0.014970
0.013949
0.001921
0.001579
0.005302
-0.009294
-0.028590
0.012249
-0.016459
0.003872
0.025494
0.010910
-0.015537
-0.011978
0.005748
-0.004013
-0.000157
0.010784
0.000137
0.014174
-0.033621
0.007687
-0.000229
-0.005106
0.003430
-0.016557
0.024407
-0.005778
0.011672
0.015312
-0.035215
-0.032257
-0.002910
-0.007822
-0.036432
-0.006050
0.018830
0.000944
0.026789
-0.010791
0.034945
-0.003256
0.002306
-0.017847
0.023780
0.009495
0.017792
0.014889
0.017358
0.004140
-0.011916
0.020654
0.015773
0.015362
0.011923
0.015685
0.006441
0.011043
0.013907
-0.003125
0.001249
0.006411
-0.024555
0.028684
0.009047
-0.023636
0.026056
0.003255
0.000958
0.012012
0.024765
0.039415
0.004460
0.007421
-0.008478
0.008862
0.012273
0.015173
0.007976
0.038587
-0.001208
0.018927
0.015515
-0.006869
0.016396
-0.003821
-0.000574
-0.012425
0.001180
-0.015606
0.006665
0.001994
0.000695
-0.013453
-0.001545
0.011357
-0.015528
-0.027864
0.020431
0.008448
0.017399
0.009004
0.004076
-0.004193
0.007328
-0.020468
0.014270
0.004905
-0.018109
0.022526
-0.004548
0.006154
0.009611
-0.026213
-0.006793
0.004720
0.002943
0.017813
-0.007274
0.015513
0.024317
0.001129
0.032431
0.023483
0.004123
0.008510
0.005840
0.002238
0.001266
0.034182
-0.004167
0.017442
-0.006685
0.001951
-0.027509
0.010891
0.019725
0.019975
-0.005847
0.041783
0.007927
0.020369
-0.004950
-0.001486
0.020441
-0.001893
0.018499
0.034765
-0.030298
0.025282
-0.013869
0.020788
-0.013330
0.011623
-0.005507
0.004226
0.028377
0.005017
0.022037
-0.008569
-0.020956
0.007678
-0.016695
0.009800
0.016203
0.009560
-0.001403
-0.001231
0.002206
0.001756
-0.016575
0.013078
0.004359
-0.031494
-0.015777
0.020347
0.014181
0.006264
0.015145
0.029451
-0.008981
-0.017565
0.009271
-0.011012
0.012396
-0.003185
0.004920
0.001789
0.017771
-0.015885
0.007629
0.011783
0.007418
0.005036
0.003878
0.006584
-0.001071
0.024563
0.001975
-0.020823
0.009731
0.021216
-0.017087
-0.024997
0.017620
0.025143
0.014899
0.008302
0.013298
0.016505
-0.008817
0.009968
-0.029635
0.002238
-0.000879
-0.010624
-0.013816
-0.003355
0.026507
0.007691
0.028725
-0.013672
-0.019480
0.037395
0.016099
-0.093085
-0.019150
0.017671
-0.005193
0.003496
0.002043
0.008024
-0.018898
-0.010374
-0.010376
0.024164
-0.004666
-0.001332
0.010674
0.041172
0.001001
-0.007176
0.020405
0.021430
-0.009983
0.003411
0.012102
-0.006420
-0.001421
-0.018337
0.001817
-0.004690
-0.009098
0.004054
0.012136
-0.019271
0.006727
-0.003383
0.014512
-0.000471
0.002599
0.009284
-0.002518
0.003718
-0.011743
0.017465
0.001485
0.007856
-0.005689
-0.025108
0.004181
-0.012565
-0.021880
-0.008682
0.012276
-0.012373
0.013555
-0.007671
-0.017819
0.003925
0.009531
-0.041843
0.012820
-0.003966
0.016351
0.016373
-0.011385
0.001489
0.005025
0.008655
