-0.030275
-0.001983
0.003831
0.006418
-0.010048
-0.029020
-0.039374
0.014015
0.014554
-0.000433
-0.022013
0.007832
0.008182
0.043173
-0.048109
0.016547
0.026765
-0.014188
0.019076
-0.035557
-0.049542
-0.047716
-0.020464
0.050781
-0.024405
-0.047482
-0.011273
-0.009486
-0.048169
-0.016749
0.000503
0.014802
-0.025084
-0.014546
0.064562
-0.032867
-0.002161
-0.038554
-0.034936
-0.031933
-0.018578
0.003684
-0.007353
-0.016359
-0.040326
-0.021782
-0.046418
-0.008789
-0.048322
-0.055343
0.006371
-0.019111
-0.009808
0.018705
-0.049179
-0.050176
-0.049323
-0.050874
-0.000643
-0.043321
-0.029518
-0.015518
-0.040034
0.012894
-0.032840
-0.046242
0.029280
-0.001701
-0.054978
0.036784
-0.014756
0.059629
-0.057723
0.004120
-0.002335
0.017556
-0.042413
-0.004619
-0.002969
0.016721
-0.004739
0.005221
-0.005257
0.019004
-0.033939
-0.026993
-0.073154
0.015626
-0.036219
-0.042117
-0.019403
-0.049879
-0.001705
-0.039466
-0.037314
-0.039301
-0.051305
0.020459
0.005409
-0.004629
-0.005504
-0.017770
-0.037904
0.013149
-0.022923
-0.006294
0.014712
-0.056648
-0.045228
0.000710
0.005789
-0.027209
-0.025824
-0.061632
-0.038865
0.015113
0.023053
-0.084045
-0.022046
-0.045030
0.011053
0.015655
-0.056522
0.009652
-0.027643
-0.028288
-0.046421
0.009983
0.000545
0.022628
-0.026236
-0.016466
0.004936
0.035887
-0.004751
-0.012266
-0.045406
-0.055325
-0.046551
0.037924
0.002161
0.001031
0.000210
0.028518
0.029530
0.032589
-0.019592
-0.051163
0.007281
-0.026334
-0.045305
-0.014302
0.007471
-0.012846
-0.044439
-0.031971
0.042301
0.041851
0.001565
0.022902
-0.005699
-0.041580
-0.016732
-0.062886
0.008487
-0.023770
-0.020608
0.009669
0.023910
-0.024098
0.042413
0.012415
0.029586
0.043805
-0.010537
-0.044300
-0.020534
-0.011212
0.014310
-0.014901
0.068326
0.012677
-0.018896
-0.019494
-0.048887
-0.021994
0.014511
0.002496
0.042489
-0.062185
-0.012832
-0.039779
-0.001435
-0.044176
0.032296
-0.025001
-0.029728
-0.004534
0.009753
-0.039613
0.004014
-0.019143
-0.044201
-0.015947
0.006693
-0.027849
-0.031560
0.037047
-0.052038
0.036810
-0.017310
-0.012308
0.010682
0.017528
0.009253
-0.056456
0.016350
0.002600
0.030760
-0.007804
-0.005454
-0.021064
-0.067436
0.009587
-0.007295
-0.017187
-0.008314
0.016037
0.024300
-0.005160
0.009750
-0.036359
0.021573
-0.020468
-0.003943
-0.025832
-0.044371
0.003701
-0.014522
-0.032479
-0.037395
-0.027492
-0.057785
-0.002911
0.031437
0.017063
-0.044872
-0.022725
-0.015072
-0.040684
0.013770
0.001931
0.013751
-0.019196
-0.002229
-0.016104
-0.005639
0.001875
0.010912
0.021883
0.001186
-0.060758
-0.001738
-0.009950
-0.038111
-0.005999
-0.034125
-0.015986
-0.026282
-0.013084
-0.050145
0.027958
0.034159
-0.104700
-0.008197
0.017932
-0.009329
-0.041266
-0.019347
0.016958
-0.017805
-0.022398
-0.064131
-0.000034
0.006218
-0.029697
-0.038577
-0.035053
-0.063099
0.048376
0.004207
-0.048913
-0.009374
-0.023386
0.023713
-0.028134
-0.014301
-0.001288
0.015909
0.018120
0.009190
0.021443
-0.000509
0.011783
-0.009397
-0.006930
0.023363
-0.025796
-0.033970
0.001839
-0.036581
0.050835
-0.010222
-0.073368
-0.036248
0.025649
-0.026119
-0.037662
-0.040369
0.008057
-0.034775
-0.020125
-0.028601
-0.029193
-0.053534
0.012905
0.034840
-0.021207
0.017183
-0.037710
-0.045743
0.001161
-0.013823
-0.045771
-0.057806
-0.051163
-0.030720
0.009016
-0.000385
-0.024944
-0.025758
0.012036
-0.034666
-0.048039
0.002172
-0.034886
0.029720
-0.033785
-0.060342
-0.022804
-0.028133
0.000304
-0.001080
-0.010280
-0.008740
-0.037864
-0.052873
0.001840
-0.030668
0.007800
-0.037657
0.006320
-0.029553
-0.009871
0.008630
0.033556
0.027513
-0.064865
-0.015143
-0.051744
-0.024601
-0.007296
-0.026836
-0.038543
-0.037974
-0.015121
-0.038600
-0.032580
0.019108
-0.046916
0.020065
-0.041739
0.010532
0.002648
-0.041793
-0.056932
0.039885
0.004654
0.031852
0.000773
0.040944
-0.048707
-0.039730
-0.008746
0.007213
-0.014091
-0.032185
0.006022
-0.036466
-0.029011
-0.020640
0.019377
0.001077
-0.030874
0.039820
0.009491
-0.052515
0.014636
-0.056236
-0.012632
-0.033725
-0.020851
0.028778
-0.063388
0.008532
-0.018106
0.003721
-0.002122
0.006313
-0.011787
0.015754
-0.021103
-0.027116
-0.019481
0.000390
0.005403
-0.036745
-0.013653
0.028254
0.004137
-0.018873
-0.007456
-0.025545
-0.007092
0.014943
0.024756
0.045734
-0.022817
-0.044459
-0.086843
0.005620
-0.002670
-0.020688
-0.004291
-0.029235
0.023213
-0.025221
0.005042
-0.047663
-0.049539
-0.046378
0.011684
-0.027160
-0.029531
0.030773
-0.024063
0.052937
-0.047378
-0.042636
0.012802
0.023925
-0.013723
-0.048631
-0.015483
-0.030197
0.005825
-0.012816
-0.005517
-0.019250
-0.037492
-0.003176
-0.046917
0.010511
-0.004230
-0.027044
-0.017084
-0.041263
-0.016935
0.020932
-0.001198
0.039983
-0.022549
0.011831
0.005948
-0.022254
-0.023567
0.021244
0.021965
0.009082
0.016506
0.000822
-0.044394
-0.032051
0.005043
-0.059839
-0.039466
-0.026921
-0.049312
-0.001022
-0.016560
-0.021219
0.022903
-0.033491
-0.054521
0.013348
-0.045519
0.037730
-0.008641
-0.042226
-0.023194
0.032527
0.033420
