0.008334
-0.000027
-0.003057
0.017580
-0.008846
0.019480
-0.020464
-0.008971
-0.011323
0.015414
-0.014143
0.007985
-0.001075
0.007559
0.003814
0.031206
-0.008467
0.006270
0.006881
-0.019903
0.001861
-0.006284
-0.006764
0.003911
-0.018696
-0.017920
-0.020753
0.006672
0.002780
-0.030835
-0.015171
-0.008141
0.030874
-0.008432
-0.013065
-0.028255
0.033045
-0.011896
0.020424
-0.008639
0.018494
-0.031095
-0.025318
-0.000935
0.001944
0.003686
0.028992
0.045314
-0.037719
-0.051007
0.001438
0.022137
0.038909
0.030857
0.013801
0.010061
0.028293
0.021655
0.017137
0.033109
-0.020127
0.012046
0.007380
0.030691
-0.012450
-0.004191
-0.024862
-0.008466
0.017524
-0.001739
0.035541
-0.028723
-0.035635
-0.003830
-0.002158
0.039023
-0.001549
0.015788
0.012952
0.017257
0.003339
0.018926
0.002684
0.042426
-0.007038
-0.019128
0.006005
-0.008972
0.000092
0.022724
-0.009913
-0.054415
0.000525
0.005028
-0.028678
0.010446
0.025306
0.026065
0.006857
-0.007618
0.003433
0.006372
0.001614
0.013918
0.021747
-0.003217
-0.006793
0.010119
0.010373
0.021673
0.006591
0.026726
0.012448
0.021567
-0.009796
0.017381
0.008557
-0.024684
0.015211
0.009586
-0.001386
0.014800
-0.014728
0.006165
-0.026010
-0.011596
-0.012644
-0.010027
0.009897
-0.002306
0.011037
-0.016922
-0.028910
0.021077
0.016231
0.035945
0.033972
-0.001442
0.010151
-0.016308
0.018245
0.017133
-0.008962
-0.048149
-0.013842
-0.000344
0.009555
0.035073
-0.014077
-0.008686
-0.024628
0.008960
0.003005
0.006815
0.016782
-0.002392
-0.012030
0.009522
0.005549
-0.026979
0.022339
0.027597
0.030594
-0.004477
-0.014412
0.000343
0.028812
0.006637
0.009554
-0.014829
0.002124
-0.007244
0.011761
-0.013245
0.012218
0.020175
0.034029
0.020647
-0.050486
0.010971
-0.030068
-0.016398
-0.004970
-0.045065
0.014054
-0.001007
-0.029014
0.010890
-0.012804
0.004179
-0.013759
0.047873
-0.023329
0.008833
-0.024116
0.021287
0.007024
0.022140
0.011833
0.001016
-0.005101
0.004776
0.029512
-0.020643
-0.013229
0.004256
0.023081
0.000843
0.003778
-0.008075
0.010820
0.014088
-0.008979
-0.013723
0.034259
-0.035621
-0.013041
-0.004009
-0.018703
0.023725
-0.000177
0.029227
-0.007898
-0.016337
0.012266
0.003070
0.008626
0.012590
0.013228
-0.016489
-0.006604
0.012728
-0.000956
-0.020908
-0.017890
-0.000001
0.002233
0.004628
-0.015241
-0.037437
-0.002803
-0.009637
-0.000781
0.025475
-0.065408
0.006238
0.032545
0.010964
0.007572
-0.001058
0.022944
0.015285
0.021902
-0.000909
-0.020523
0.012749
0.024668
-0.011203
-0.036592
0.012255
-0.043482
0.031119
-0.001469
0.014340
0.017121
0.006049
0.003409
-0.007294
0.002478
-0.031405
0.014413
0.004394
0.000072
-0.001865
-0.015010
0.012111
-0.021926
-0.016660
-0.019283
-0.028248
0.010785
-0.009011
-0.031013
0.004159
0.001146
-0.019793
-0.046365
-0.010404
0.007298
0.005815
-0.008493
-0.013963
-0.002039
0.000426
-0.018591
-0.017395
-0.028125
-0.041570
0.011321
0.013055
-0.014185
0.029960
-0.021383
0.000197
0.027356
0.026103
0.019418
0.026128
0.000626
-0.002747
-0.017062
0.019744
0.024986
0.020692
-0.025035
-0.002676
0.015345
0.023780
0.028876
0.011985
-0.025184
0.009809
0.015852
0.004063
0.001461
-0.002139
0.011702
0.011199
-0.011586
0.018405
0.007858
0.007627
-0.008701
-0.025755
-0.009613
-0.002663
-0.027509
-0.016533
-0.027270
0.009242
-0.013439
0.023946
-0.016025
0.029699
-0.022216
0.003299
0.012797
-0.048427
0.014737
0.016842
0.006263
0.023609
-0.008583
0.016567
0.015470
-0.005262
-0.011540
-0.024750
0.001172
0.008999
0.008409
-0.025624
0.008806
-0.033120
0.017958
-0.013289
0.002587
-0.004938
-0.025535
0.058380
-0.020325
0.005937
-0.029367
-0.000296
0.002262
0.007894
-0.017423
-0.012380
0.015038
-0.013080
0.049931
0.016962
0.025149
-0.011574
-0.035170
0.005788
0.032309
0.019380
0.014372
0.010430
0.002209
-0.006718
0.019594
0.006519
-0.009575
0.012299
0.006238
0.017467
-0.018040
-0.006344
-0.033215
-0.010378
-0.004667
-0.038404
0.019838
-0.008472
0.010756
-0.015335
-0.014248
-0.002865
-0.010879
-0.009968
-0.012559
-0.016546
0.005802
0.010033
0.012159
-0.006892
0.025722
0.001717
0.013479
-0.019577
-0.011312
0.056682
0.011647
-0.007257
0.007503
0.004209
0.001492
-0.003188
0.011579
0.013511
0.005410
0.016293
0.001422
0.011672
-0.015540
-0.029750
-0.007708
-0.007355
0.021745
-0.005934
-0.011418
-0.003376
-0.016681
0.006061
-0.006625
0.018173
0.001718
0.002827
0.005899
-0.000489
0.008720
0.048617
-0.050804
0.047985
-0.005784
-0.028281
0.037873
-0.021485
-0.032729
-0.010344
-0.020454
-0.005368
0.016849
0.004108
0.023321
-0.018517
0.010726
0.006879
-0.000949
-0.001367
-0.003553
0.027308
-0.006225
-0.001900
-0.003434
-0.015326
0.007545
-0.006843
0.012037
0.011503
-0.034703
0.053362
0.014371
-0.023495
0.020611
0.008378
-0.037457
0.037578
-0.017577
-0.022357
0.020168
0.009587
-0.015770
-0.016174
-0.004721
-0.006680
0.018931
0.012112
0.025909
-0.025847
0.002080
-0.013354
-0.002039
0.016420
0.029030
0.005132
0.006609
-0.025618
0.001309
-0.000026
