0.049601
0.003047
0.148483
-0.119708
0.012436
0.099830
0.252557
0.056795
-0.023702
0.093074
-0.179273
0.119331
-0.271912
0.031251
0.051554
-0.079120
-0.081861
-0.060492
-0.152458
0.079873
0.064798
-0.062377
0.073364
-0.028146
-0.006913
-0.073102
0.035798
0.117578
0.100928
-0.236586
0.077500
0.025433
-0.119640
0.247918
-0.155537
-0.011788
0.114615
0.004797
-0.076372
-0.174816
0.111750
-0.072528
-0.138530
0.167815
0.155613
-0.013976
-0.226479
0.013353
-0.010753
0.193303
0.071264
-0.052631
-0.083620
0.089277
0.119149
0.065489
0.187433
-0.181757
-0.021768
0.012764
-0.180359
-0.015466
-0.021153
-0.076354
-0.039736
0.040955
0.060966
0.083049
0.000994
0.006980
-0.053793
0.153335
-0.037393
-0.118586
0.097079
0.038915
0.158129
0.026606
0.039157
-0.159023
-0.009260
-0.064379
-0.164263
-0.038446
0.163365
-0.016191
0.001460
-0.140707
-0.159981
0.021811
0.210737
0.123229
0.159213
-0.228238
-0.194573
-0.057887
0.033509
-0.027542
0.199653
-0.012918
-0.022940
-0.034414
-0.045503
0.057785
-0.069223
0.003625
0.165409
-0.078209
-0.137939
-0.127158
-0.071293
0.216220
0.324983
-0.200267
0.026181
0.033479
0.008443
0.138370
-0.118788
-0.051933
-0.029615
0.065097
-0.016806
0.098583
0.101526
-0.195125
0.011742
0.206522
