-0.008329,0.018295,0.029673,0.025617,0.005428,0.009510,-0.005821,-0.002587,-0.025484,0.025896
-0.111373,-0.099656,0.026972,0.200670,0.105433,0.141925,-0.167391,0.066893,-0.054899,-0.025543
-0.009469,0.020708,0.008230,-0.026322,0.216145,0.002160,0.182541,-0.031980,-0.043980,0.020126
0.026581,-0.031529,0.051588,0.065035,0.008259,0.072168,0.022715,0.009968,-0.038081,0.002667
-0.122912,-0.116683,0.015409,0.126878,0.038732,-0.106993,0.158529,-0.021661,0.183385,0.170994
0.000136,0.013294,-0.026581,-0.030387,-0.018226,-0.022382,0.022500,0.000575,0.027578,-0.016406
-0.008049,0.022274,0.012683,-0.018450,0.009867,0.001366,-0.043790,0.025899,0.033574,0.035961
-0.053972,-0.028077,-0.026018,-0.039220,-0.026894,-0.046021,0.002653,-0.033347,-0.056361,0.019013
-0.355236,-0.200916,-0.397411,-0.456432,0.524835,0.781110,0.211812,0.626686,-0.624203,-0.271280
0.290473,-0.250617,0.300591,-0.060918,0.353047,-0.246095,-0.218965,0.376845,-0.127162,-0.157098
0.057309,-0.088971,-0.025836,-0.007182,0.063580,0.177831,-0.045020,0.102422,0.107853,-0.123782
0.231468,-0.041896,-0.008000,-0.140348,0.076938,-0.137710,0.092419,-0.156017,0.249124,-0.136778
-0.102228,-0.166008,-0.196041,0.163512,-0.043528,-0.009028,0.067694,-0.237632,0.129407,0.173058
0.120553,-0.184416,-0.074704,0.145407,0.139681,-0.062613,0.001731,-0.140363,0.069894,-0.040258
0.430488,0.421476,-0.016825,-0.279426,-0.333017,-0.494185,-0.030879,-0.359616,0.369459,0.456153
0.013887,-0.069895,-0.134259,-0.037712,0.041325,-0.090350,0.058324,-0.131857,0.098854,0.068130
-0.012706,-0.042473,-0.026551,-0.005060,-0.002116,-0.017375,0.034267,-0.012515,-0.065200,-0.032453
0.001989,-0.048994,-0.021193,-0.004320,-0.017184,0.003621,0.002168,-0.005254,0.021765,-0.036353
-0.222725,-0.256698,-0.193057,0.123232,0.197747,-0.042975,-0.057160,0.155029,-0.139613,0.146764
-0.008818,-0.019515,0.018908,0.002610,-0.022544,-0.007934,0.013145,-0.014644,-0.055718,0.010621
0.009688,-0.011463,0.012534,0.017987,0.026215,0.008794,0.020326,0.008849,-0.012312,0.011206
0.009373,0.002011,0.039735,0.027818,0.020809,0.023751,0.063123,0.025731,-0.045740,-0.013559
0.161737,-0.001709,0.134019,-0.250872,0.290168,-0.020789,-0.242895,0.216899,-0.117450,-0.248561
-0.093612,-0.004180,-0.254521,-0.092700,0.269130,0.365606,-0.213408,0.065277,-0.149174,0.248000
-0.003105,-0.042255,-0.001044,-0.012674,0.016483,-0.031579,0.027873,-0.016601,-0.082645,-0.001686
-0.076991,-0.232686,-0.293832,-0.441542,0.374784,-0.352066,-0.531426,0.474680,0.525927,0.462668
-0.173678,-0.076614,-0.122461,0.079485,0.299704,0.087482,0.154781,0.294892,-0.115074,-0.348089
-0.045179,-0.069381,-0.031804,-0.004315,-0.022270,-0.001340,-0.018851,0.005445,-0.032493,-0.027045
-0.022078,0.007507,0.022111,0.046782,0.006551,0.047717,0.023343,-0.004540,-0.017038,0.035806
0.026904,-0.022438,0.006356,0.036100,0.033814,0.042269,0.062301,0.018720,-0.029956,-0.019303
0.253560,-0.084762,-0.038044,-0.110513,0.217109,-0.056441,-0.169744,0.181919,0.036035,0.088467
0.050471,0.248077,-0.202986,-0.117273,-0.140105,-0.244096,0.222297,-0.185427,0.068822,0.274820
0.272471,0.210331,-0.279300,-0.173400,-0.240624,-0.311957,-0.261296,-0.249296,0.245428,0.248454
0.024207,-0.064731,0.002288,-0.004206,0.029017,0.009589,-0.020873,-0.033938,-0.017517,-0.012977
-0.037318,-0.004980,-0.034535,-0.006493,-0.014436,-0.013805,0.003642,0.010794,0.015223,-0.054096
-0.091194,0.047054,-0.080070,-0.023455,-0.006876,-0.022150,0.087897,-0.061400,0.051912,0.004263
-0.017112,-0.023014,0.015499,0.016468,0.002299,0.012406,0.003048,0.014430,-0.073603,-0.023896
-0.126205,-0.252536,-0.139642,0.224027,0.301353,0.258038,-0.253253,-0.058302,0.053129,-0.180911
0.040252,0.087915,-0.017884,-0.015065,0.048066,-0.006505,0.114451,0.004629,-0.043212,0.098025
-0.022073,0.014118,-0.034689,-0.024957,-0.012190,-0.013683,-0.044505,-0.022522,0.044899,0.030017
-0.027949,-0.020429,-0.016128,-0.010944,0.041831,-0.010375,0.066339,-0.011393,-0.049481,-0.006530
0.005089,0.056519,0.004785,0.002014,0.029509,0.016420,0.027800,0.021150,0.102687,0.059953
0.003761,0.022823,-0.000228,-0.032454,-0.008349,-0.039192,-0.043217,0.013898,0.031299,0.046461
0.046651,0.057077,0.034837,0.028042,0.002106,0.024284,-0.000295,0.036650,0.023071,0.036229
0.153413,-0.122369,-0.145558,0.205843,-0.214107,-0.298398,0.179051,-0.195850,0.107716,0.160463
-0.169865,0.463380,-0.208621,-0.345245,0.123335,0.156950,-0.212594,-0.316153,0.419927,0.422672
0.018301,-0.022511,0.050523,0.021271,0.041691,0.014099,0.017243,0.030679,-0.009019,0.007549
0.023437,-0.044083,0.001088,-0.007000,-0.018026,-0.013801,0.018213,-0.012127,-0.054278,-0.053133
0.015485,0.081937,-0.062413,-0.040267,0.037595,-0.052455,0.067719,-0.047163,-0.028786,0.123749
0.075092,0.113720,-0.096236,-0.092736,-0.037592,-0.073758,0.119950,-0.099612,0.070033,0.097341
-0.003311,-0.073275,-0.057024,0.002646,0.021883,-0.014310,0.058395,-0.078826,0.121775,-0.060044
-0.050424,-0.055216,-0.009043,-0.015251,-0.018350,0.010663,0.001411,-0.016526,0.010884,-0.053418
0.044596,0.014530,-0.028771,-0.011932,0.022866,-0.018616,0.008917,-0.022295,0.027396,0.026778
0.467462,-0.306390,-0.044071,0.145328,-0.129925,-0.253233,-0.480301,0.381167,0.060569,0.014978
-0.004934,-0.003148,-0.018698,-0.010926,-0.030537,-0.030712,-0.020660,0.011565,0.014348,-0.035881
-0.035300,-0.016523,0.018093,0.019646,0.007539,0.028867,-0.022457,-0.024428,-0.081718,-0.026523
-0.001947,-0.017103,0.007402,0.005709,0.001912,-0.001355,-0.007992,0.007668,-0.015160,-0.013457
0.539204,0.301608,-0.363732,-0.447767,-0.017629,-0.241194,-0.310871,-0.527525,0.633585,0.029982
0.044770,0.061744,0.015938,-0.014905,-0.020055,-0.014721,-0.050774,-0.023839,0.028189,0.023532
0.033136,-0.136393,0.056899,0.104167,0.095432,0.061459,-0.008121,0.054256,-0.030790,-0.079826
0.011211,0.011215,0.042757,0.015333,0.030333,0.001413,0.019141,0.035051,-0.006985,0.034865
0.019501,-0.289523,0.132403,0.105279,0.182610,-0.152662,0.189896,-0.217056,0.100138,-0.236162
-0.140172,-0.220974,0.152227,0.191888,0.024950,-0.173694,0.165344,-0.054302,-0.008245,-0.004506
0.023657,-0.022943,0.008515,0.012305,0.000739,0.018733,-0.010083,0.008763,0.029537,-0.010222
-0.030043,-0.086095,-0.021551,-0.019077,-0.039843,0.020208,-0.065397,0.059287,-0.000540,0.071873
0.013517,-0.017512,0.024878,0.010158,0.037565,0.007068,0.029917,0.000440,-0.001171,-0.003723
0.106062,-0.199915,0.242588,-0.028043,0.049732,-0.090325,0.060634,-0.064536,0.170441,-0.096335
-0.113264,0.277932,-0.078223,-0.009669,-0.117280,0.121833,0.021822,-0.203710,0.002263,0.225260
-0.034126,0.066057,-0.060495,-0.076037,0.033243,-0.057184,0.057136,-0.019980,-0.063508,0.067729
-0.009181,-0.035339,-0.051036,-0.045006,-0.054955,-0.042760,-0.037977,-0.063253,-0.046026,-0.037057
0.017751,-0.014132,-0.036789,-0.012884,0.028175,-0.029925,-0.006982,-0.008511,0.035402,-0.021282
0.102408,-0.291359,0.262146,-0.094805,0.212902,-0.234641,0.238697,-0.244560,0.251259,-0.230176
-0.286852,0.134723,0.104636,-0.325713,-0.210114,-0.348902,0.094784,-0.165919,0.294569,0.229126
-0.028081,-0.032982,-0.039367,-0.023076,-0.015002,-0.014069,-0.036762,-0.000579,0.084457,-0.033681
-0.062611,-0.013940,-0.020643,-0.051976,-0.026892,-0.041267,-0.080072,-0.039062,0.031596,-0.017490
0.029018,-0.282109,0.065616,0.287425,0.168148,-0.157925,0.146688,-0.022464,-0.141471,-0.043544
0.227378,0.228359,-0.009501,-0.298161,0.159463,-0.206181,-0.085646,-0.249289,0.003166,-0.095353
-0.377173,-0.315569,0.157572,0.071106,0.330873,-0.069354,0.305977,-0.219869,0.135212,-0.224141
-0.179734,-0.061415,-0.102867,-0.053403,0.025865,-0.119150,0.076193,-0.075649,0.191346,0.122471
-0.012339,-0.046609,0.031045,0.002136,0.042438,-0.010493,0.070961,-0.000780,-0.050144,-0.042660
-0.052508,0.057871,-0.074427,0.041087,-0.080321,-0.166383,0.182100,-0.198607,0.214732,0.013122
0.071170,0.000946,-0.003297,0.003298,0.015621,-0.008216,-0.010623,-0.002115,0.024840,-0.035057
-0.025398,-0.027630,-0.016921,-0.004637,-0.009802,0.005621,0.004386,0.016534,-0.028230,-0.028380
-0.002522,0.107320,-0.102440,-0.041788,-0.027747,-0.046155,0.073134,-0.095626,0.116114,0.121016
0.071284,-0.167459,0.046265,0.091880,0.001185,-0.009804,-0.050433,-0.088513,-0.019395,-0.118955
-0.382293,-0.079241,-0.138949,0.295096,-0.224858,-0.431326,0.462068,-0.199445,0.144965,0.499832
-0.061810,-0.007940,-0.032875,-0.003749,0.074937,-0.142429,-0.119985,0.124126,0.228179,0.219215
-0.048183,0.002387,-0.051115,-0.061514,0.031514,-0.031767,0.037898,-0.042266,-0.055473,0.010481
0.020684,-0.007029,0.038196,0.005286,0.029435,0.015931,0.026004,0.038946,-0.017752,-0.009529
-0.033474,-0.030014,-0.051573,-0.029744,-0.021144,-0.017724,-0.013570,-0.023241,-0.030518,-0.065152
-0.001688,-0.059837,0.017084,0.025962,0.057237,0.044028,0.051084,0.018733,0.002927,0.017843
0.038741,-0.003428,0.027792,0.017705,0.020099,0.041902,0.017250,0.039644,0.045368,0.000611
-0.060261,-0.047506,-0.106991,-0.046226,-0.027444,-0.130508,0.100279,-0.136412,0.162477,0.092859
-0.011956,0.035987,-0.021169,-0.010704,0.005268,-0.015515,0.030162,-0.029560,-0.010944,0.027837
-0.031474,0.028342,-0.042166,-0.026435,0.005956,-0.026355,0.041402,-0.041744,0.004344,0.038046
0.016755,-0.068743,-0.106907,0.003560,0.008727,-0.070107,0.061472,-0.100697,0.078164,0.008739
-0.001671,-0.001525,-0.016152,-0.027245,-0.008605,-0.001018,-0.057465,-0.011606,0.024961,-0.012630
-0.027676,0.027416,-0.075094,-0.093159,0.018411,-0.049670,-0.002230,-0.070545,0.091150,0.020775
-0.051016,0.013437,-0.053112,-0.058416,-0.076942,-0.032124,-0.045563,-0.041779,0.020650,-0.043958
0.071300,-0.002592,0.020583,0.015187,0.037297,0.028126,0.026650,-0.005790,-0.022014,-0.011818
-0.021914,-0.021185,0.038885,0.054813,0.033604,0.074510,-0.027209,0.047646,-0.017783,-0.043990
-0.201973,0.344993,-0.285625,0.026442,-0.223912,-0.381858,0.404437,-0.121948,0.026957,0.459236
-0.034019,-0.022298,-0.025104,-0.015805,-0.001832,0.000385,-0.071303,-0.058876,0.036070,0.013040
-0.167951,0.101106,-0.104160,-0.105409,0.103557,-0.071248,0.193541,-0.110154,0.092912,0.123902
-0.031761,-0.030328,-0.042408,-0.026362,0.056340,-0.020365,0.068838,-0.044739,-0.093022,-0.027973
0.047936,0.042194,0.042315,0.026484,0.019562,0.040880,-0.058779,0.037058,0.105940,0.054883
0.034164,-0.038071,-0.074171,-0.044764,0.057930,-0.055323,0.073390,-0.066270,0.074005,0.079002
0.038123,-0.037204,-0.069711,-0.010608,0.054639,-0.043742,0.057834,-0.071967,0.091879,0.068883
0.038847,-0.002196,0.042231,0.050470,0.019206,0.058483,0.024195,0.011950,-0.028446,-0.002445
0.028834,0.022555,-0.001991,-0.021242,-0.020432,-0.018699,-0.063594,-0.024472,-0.005726,-0.002918
-0.036138,0.053046,-0.047671,-0.054300,-0.057315,-0.038685,-0.127426,-0.055119,0.084360,0.013398
0.242396,-0.130731,0.116836,0.018875,-0.036468,-0.063773,-0.010976,0.090152,-0.195577,0.038285
0.197547,-0.183784,0.168883,-0.234626,0.199072,-0.331779,0.278587,0.023476,-0.272945,-0.212170
-0.009261,-0.005459,-0.018432,-0.012329,-0.016510,-0.019886,-0.009013,-0.002858,-0.020800,-0.028967
0.451076,-0.237030,-0.156121,-0.121225,-0.136526,-0.070132,0.000521,-0.185369,0.408471,-0.078134
0.266084,-0.316075,0.182869,-0.051964,0.254265,-0.122522,0.167011,0.077277,-0.126246,-0.238728
0.036576,-0.242067,-0.043268,0.024080,0.199196,-0.109054,0.104820,-0.179431,0.235197,0.028190
0.198220,-0.524688,0.148237,-0.152535,0.386130,-0.261007,0.352810,0.373715,-0.418808,-0.215958
-0.029315,-0.105863,-0.015010,-0.020321,-0.016336,-0.027040,-0.043559,-0.029863,-0.063743,-0.055979
0.564389,0.618986,-0.346229,-0.442539,0.059486,-0.302229,-0.378220,-0.662569,0.486794,0.438178
-0.116594,-0.038419,0.061868,-0.031846,-0.002941,0.072912,-0.128888,0.046437,0.034914,-0.039098
0.019784,0.002370,0.031288,0.043422,0.024750,0.032114,0.028859,0.011445,-0.012471,0.002214
-0.066658,0.189405,-0.143794,-0.125053,-0.048943,-0.132747,0.054060,-0.124045,0.197779,0.186353
0.018815,-0.065396,0.012545,0.005395,0.013984,-0.005379,0.026267,-0.010663,-0.055966,0.004373
0.166940,-0.120281,-0.275596,-0.097643,0.109461,-0.149976,-0.212064,0.096870,-0.059907,0.201025
-0.305351,-0.283933,0.511028,-0.177145,0.392420,-0.071377,0.447445,-0.019319,-0.238155,-0.208938
0.013897,-0.003966,0.007868,0.009276,0.018171,0.018691,0.029441,0.014704,0.007701,0.011766
-0.183493,-0.189757,0.065962,0.088194,0.208732,0.081909,0.129911,0.110570,-0.186530,-0.143025
-0.023767,0.060913,-0.020551,-0.004880,-0.003818,0.009859,-0.030462,0.014150,0.038003,-0.001072
0.029036,-0.006103,0.060780,0.059890,0.055658,0.051728,0.087838,0.055523,-0.008057,-0.000624
0.046501,0.002425,0.044837,0.019592,0.040043,0.008741,0.016496,0.040351,0.048361,0.025668
-0.089299,-0.026558,-0.008999,-0.022323,-0.078164,-0.036527,-0.012480,-0.002818,-0.084348,-0.013087
0.013653,0.005774,0.026762,0.012103,0.017645,0.002876,0.027335,0.010316,0.031647,0.041409
0.022965,-0.365226,-0.033701,0.350954,0.334503,0.027757,0.205900,-0.249540,-0.116392,-0.210692
-0.184935,-0.132717,0.129845,0.073436,-0.313628,-0.259295,0.172481,0.172689,0.233520,0.176177
0.031946,-0.052761,0.002368,0.036706,0.009355,0.106389,0.003141,-0.006529,0.007119,0.051063
0.008586,-0.015282,0.012050,0.011395,0.006228,0.021406,0.013615,0.006068,-0.013349,-0.005792
0.224179,-0.320661,-0.019569,0.028890,0.163210,-0.244005,-0.345927,-0.136114,0.270165,0.048072
-0.099653,-0.260637,-0.364017,0.256832,0.488596,0.546442,-0.215706,-0.242457,0.115685,-0.085737
0.010601,-0.003331,-0.013684,-0.009253,-0.010221,-0.024977,0.005912,-0.029661,-0.000779,-0.029807
0.223105,-0.151746,-0.016541,0.033219,0.212166,-0.111319,0.231415,-0.180720,0.146296,-0.049115
0.022012,0.008151,0.022720,0.027122,0.029627,0.038602,0.041719,-0.001922,-0.004914,0.004715
0.282477,-0.316095,-0.154406,-0.219738,0.356656,0.090456,-0.320491,0.331560,-0.112970,0.018841
-0.103730,0.126357,-0.138768,-0.059161,0.030077,-0.070796,0.213672,-0.120645,0.133107,0.137292
0.064781,-0.099661,0.024491,-0.024714,0.144944,-0.012564,0.107624,-0.053881,0.087537,-0.016133
0.146545,-0.226419,0.260066,-0.031379,-0.223023,-0.049311,-0.030262,-0.102253,0.215647,-0.050338
-0.003602,0.009432,0.025972,0.028655,0.029575,0.030061,0.013222,0.025762,0.005843,0.011871
0.012938,0.024108,0.009987,0.008779,0.014894,0.011469,0.017505,0.011220,-0.005638,0.010573
0.378926,-0.310804,0.415425,-0.270868,0.409809,-0.464457,0.554037,0.032409,-0.388748,-0.381715
-0.094441,0.613372,-0.384417,-0.077241,-0.042473,-0.214765,-0.164654,-0.117703,0.461976,-0.062375
-0.037112,-0.064711,-0.000661,0.003919,-0.024754,-0.009859,0.011717,-0.021950,-0.075444,-0.047261
-0.007985,0.040379,-0.009362,-0.032662,-0.010448,-0.038916,-0.038011,-0.028697,-0.024731,-0.009677
-0.193311,-0.156686,0.044708,-0.097760,0.062793,0.151446,0.118547,-0.001960,-0.112126,-0.170849
-0.031470,-0.075564,-0.018270,-0.048536,-0.015720,-0.033015,-0.010643,-0.028611,0.032931,-0.029498
-0.042573,-0.114160,-0.025620,0.082001,0.027665,0.025303,0.026260,-0.015249,-0.088035,-0.167180
-0.158935,0.096018,0.355318,-0.143899,0.450710,-0.156065,0.521014,-0.141961,-0.449379,-0.274499
-0.018926,-0.074848,0.010016,0.016622,0.023402,-0.021651,0.000600,0.049839,-0.038495,-0.076000
-0.012561,-0.058083,0.009733,0.013862,0.011888,0.030666,0.017881,-0.010666,-0.070066,-0.054031
-0.045557,0.062605,-0.035748,-0.038530,-0.030808,-0.041648,-0.067644,-0.029914,0.036557,-0.002043
-0.035427,0.010328,-0.066314,-0.087164,0.071888,-0.067859,0.065740,-0.017994,-0.051113,0.061344
0.006368,-0.227340,-0.029793,0.232729,0.168674,-0.131817,0.187102,-0.128931,0.068309,-0.041740
-0.006794,0.006077,0.021412,0.032028,0.010920,0.017146,-0.008257,-0.000110,-0.012112,0.027805
0.015600,-0.003641,0.021906,0.036868,0.060442,0.035332,0.029628,0.022019,-0.005314,-0.017864
-0.079719,0.000996,-0.016642,0.038127,0.226064,0.010170,0.204237,-0.077161,-0.072942,0.035387
-0.022678,-0.027740,-0.006351,-0.017079,-0.007599,-0.028750,-0.014847,-0.036847,-0.033248,0.014847
0.134460,-0.076705,-0.069977,-0.023716,-0.020459,-0.102345,0.041739,-0.101166,0.123805,-0.075584
-0.059985,-0.050175,0.013852,0.045362,0.026847,0.125530,-0.058047,-0.109229,-0.059492,0.013250
0.219159,-0.258612,0.232270,-0.028636,0.002299,-0.074431,0.103306,-0.073549,0.066550,-0.100542
0.152171,-0.073260,-0.181393,-0.306978,0.028300,0.163186,-0.355671,0.273165,0.294445,-0.130415
-0.022908,0.178657,-0.114080,-0.072016,-0.006084,0.015859,0.179402,-0.118911,-0.095543,0.144246
0.012460,-0.225193,-0.028179,0.169970,0.271141,-0.041614,0.183903,0.101534,-0.224591,-0.006595
-0.022059,-0.008161,-0.011650,0.009302,-0.020114,0.006116,-0.037726,-0.022771,-0.052757,-0.007368
-0.131411,-0.054104,0.192582,-0.044504,0.290162,0.107439,0.170871,0.163257,0.048846,-0.272794
0.068644,-0.229026,-0.072930,-0.130500,-0.130839,0.002079,-0.209517,0.173789,0.073039,0.047021
0.052688,0.107233,-0.004635,0.008506,0.017704,0.019802,0.017572,-0.012027,0.089400,0.081731
0.187796,-0.354619,0.229114,0.292222,0.164517,-0.412443,-0.038412,-0.126406,0.217751,-0.179301
-0.052120,-0.076230,-0.031389,-0.023688,0.031561,-0.021411,0.000905,-0.007130,-0.010373,-0.071742
-0.227685,-0.137796,0.258548,0.317138,0.235219,-0.096573,-0.296862,-0.101645,-0.134096,-0.069728
0.093688,0.025002,0.005035,0.004382,-0.045339,0.013172,-0.077448,-0.037857,0.002231,0.029288
0.008286,-0.032238,-0.013662,-0.025486,-0.001543,-0.003220,-0.079688,0.010151,0.023812,0.000563
0.046968,0.013545,0.028608,0.039439,0.033500,0.024548,0.039517,0.013149,0.028616,0.054308
0.008914,0.030822,0.012989,0.005958,-0.004898,0.004159,-0.020910,-0.022054,-0.015533,0.037225
0.026749,0.015040,0.000029,-0.014585,0.015585,0.001237,0.012864,0.020863,0.061579,0.018947
0.047151,0.036366,-0.000946,0.017280,-0.002880,0.021957,-0.038595,-0.024985,0.014018,0.022838
0.053425,0.352860,-0.047449,-0.239813,-0.085290,-0.159255,0.162617,-0.284019,0.447812,-0.027239
-0.047188,-0.051867,-0.116450,0.143026,-0.026337,0.074685,-0.092897,-0.056112,0.005014,-0.110775
0.005972,-0.057176,0.029113,-0.003733,-0.009108,0.005442,-0.003900,-0.017475,-0.052342,-0.066255
-0.026421,-0.054285,0.039465,0.028690,0.014773,0.025984,0.029624,-0.017135,-0.026270,0.001566
0.159139,-0.172314,0.064664,0.081149,0.089810,0.049177,-0.028672,0.066603,0.096466,-0.083502
-0.037984,-0.016148,-0.016164,-0.007946,-0.021522,-0.001535,0.010950,-0.012016,-0.004755,-0.028740
-0.102933,0.089515,-0.165899,-0.194049,0.184868,-0.141558,0.177094,0.031388,-0.241556,0.216101
0.745862,0.201816,-0.029059,-0.042086,-0.310017,-0.134916,0.146033,-0.248128,-0.204976,-0.034987
0.022432,0.022241,0.015670,-0.009990,0.002027,-0.001867,0.027176,0.011503,0.054727,0.035207
0.011391,0.024525,-0.003440,0.009062,-0.015156,0.004973,-0.022830,0.004061,-0.038167,0.016374
-0.036116,0.325360,-0.251871,-0.189655,-0.146473,-0.156156,0.215924,-0.214962,0.241126,0.288281
-0.211735,-0.217428,-0.157860,0.192586,0.234226,0.081157,0.171373,0.082791,-0.196244,0.137734
-0.053000,0.038836,-0.055192,-0.039668,0.002394,-0.027833,0.037132,-0.057128,0.014313,0.042741
-0.005533,0.007015,0.008699,-0.038562,0.023787,-0.027526,0.006587,0.026920,0.075054,0.006473
-0.046068,-0.228259,-0.188580,0.298181,0.074952,-0.133287,0.232145,-0.282651,0.287400,0.200026
0.015882,0.081057,0.030863,0.005022,0.002703,0.023394,-0.027452,0.007983,0.057133,0.055073
-0.205438,-0.172025,0.230101,0.129791,0.312866,0.124237,0.227378,-0.078435,-0.140842,-0.116369
0.046274,-0.008086,0.045121,0.014266,-0.008191,0.038163,-0.048840,-0.004230,-0.058433,-0.030718
0.022803,-0.012724,0.002232,0.007675,-0.007900,0.009779,-0.043047,0.002402,0.018119,0.018699
0.075026,-0.002258,0.044259,0.047503,0.046833,0.055912,-0.029126,0.113783,0.019422,0.000106
-0.125849,0.024858,-0.045288,-0.000774,0.107154,-0.076879,0.186026,-0.009923,0.047597,0.156931
-0.194534,-0.199561,-0.014749,-0.030871,0.146993,0.158335,0.151813,0.120301,-0.126898,-0.087352
0.014682,-0.009890,-0.003623,-0.011424,0.002688,0.011859,-0.062618,0.014514,0.089229,0.005918
-0.037436,0.064423,-0.046347,-0.059220,0.037767,-0.036996,0.041848,-0.014492,0.050435,0.098102
0.061978,0.046903,-0.030862,-0.006896,0.099733,0.000139,0.137262,-0.038231,0.002707,0.080076
-0.013821,-0.021566,-0.021619,-0.010833,0.010595,0.001966,0.000982,0.043123,-0.038144,0.014402
-0.042007,-0.009389,-0.025707,-0.040156,-0.025102,-0.036238,-0.033831,-0.026199,-0.020468,-0.017850
0.033948,0.053311,0.044259,0.051152,0.048541,0.055307,0.046054,0.077267,0.010590,-0.004737
0.178784,-0.096075,0.111581,-0.106139,0.135149,-0.143819,-0.092443,-0.145128,0.198155,-0.125583
0.063089,0.045634,-0.207605,0.097175,-0.097410,-0.045670,0.424333,-0.108521,0.310408,-0.475853
0.230362,-0.281897,0.147210,0.047217,0.408728,-0.259899,-0.347156,0.444483,-0.323698,0.014021
-0.019111,-0.049689,-0.013054,-0.000120,-0.006214,0.019962,0.024744,0.001469,0.015430,-0.012549
0.003981,-0.047401,0.033945,0.041054,0.038270,0.034325,0.104200,0.032880,-0.024026,-0.016845
0.114138,-0.095840,-0.040779,-0.066767,0.139817,-0.017784,0.009878,-0.062108,0.117783,0.039242
-0.119786,0.608229,-0.176877,-0.376222,-0.357821,-0.543255,0.531297,-0.308999,0.064472,0.721679
0.026690,0.015232,0.014587,-0.016309,-0.021618,-0.016616,0.018042,-0.013343,0.015250,-0.018891
-0.023545,-0.054692,-0.031096,0.001081,-0.040244,0.000502,0.011479,-0.079120,-0.019785,-0.015643
0.288288,0.196146,-0.147139,-0.257205,-0.053171,-0.266336,-0.134194,-0.253554,0.343808,0.260440
-0.282806,0.039533,-0.019622,-0.157900,0.284166,0.192408,0.202288,0.154871,-0.076717,-0.205457
0.116830,-0.256680,0.370004,-0.018384,0.336204,0.037929,0.008942,-0.161728,-0.064175,-0.187928
-0.315544,0.089677,0.310614,-0.304854,0.222154,-0.269911,0.249086,0.360057,-0.254220,-0.076419
0.321443,-0.064638,-0.112823,-0.107504,0.066068,-0.162991,-0.124679,-0.103130,0.287593,0.156284
0.030920,0.015498,-0.031800,-0.021489,0.036297,-0.034298,0.063956,-0.035075,0.125252,0.079542
-0.082379,-0.072148,0.016014,-0.014396,-0.045848,0.018010,0.013065,0.014036,-0.134256,-0.103376
-0.001665,0.158260,-0.137446,-0.100702,-0.083892,-0.101030,0.010912,-0.120556,0.217496,0.162707
-0.510314,0.056884,0.157516,-0.357403,0.249864,-0.255288,-0.099455,0.191689,0.329723,0.191021
0.056196,-0.033224,0.034710,0.034549,-0.000683,0.082079,-0.014028,-0.019999,-0.052516,-0.007452
0.030252,0.008847,0.006020,0.015109,0.017878,-0.008823,-0.021061,-0.028778,-0.018140,0.026946
0.002751,0.066957,-0.013259,-0.026626,-0.036047,-0.022738,-0.070967,-0.037845,-0.011558,-0.001025
-0.048188,0.004428,-0.004790,0.009467,0.005149,-0.000423,-0.005422,0.032635,-0.048506,-0.012900
-0.204720,-0.282987,-0.159461,0.235391,0.294074,0.239491,-0.162555,0.024091,-0.015773,-0.084719
0.060755,-0.031618,-0.005298,0.016127,0.029811,0.010001,0.003002,0.015173,0.024389,0.025777
0.010604,-0.072393,0.024272,0.018032,0.015176,0.018166,0.059596,0.019966,-0.057423,-0.018503
-0.013953,-0.006471,0.003432,0.027678,0.002662,0.016285,0.055975,-0.002177,-0.037351,0.010351
-0.050507,-0.045339,-0.035035,-0.031911,-0.021898,-0.026987,-0.039338,-0.019102,0.069157,-0.026193
0.010687,0.031242,0.014365,0.016971,0.012865,0.001487,0.017197,-0.005399,-0.017427,0.041319
0.129439,0.083768,-0.023077,-0.656172,0.366964,-0.475784,-0.526762,0.435832,0.217442,0.276792
-0.079403,-0.046768,-0.116340,-0.023854,0.002389,-0.080038,0.047439,-0.104091,0.143088,0.095944
0.042389,0.047771,0.045073,0.046362,0.046134,0.043706,0.035792,0.030219,-0.043597,0.045695
0.359828,0.222083,-0.179018,-0.116610,-0.007969,-0.179847,0.154058,-0.133423,-0.209930,0.271347
-0.194562,-0.192374,-0.162637,-0.041260,0.280878,0.355448,0.130918,-0.132040,0.007364,-0.129938
0.253715,-0.094543,-0.135331,0.154693,-0.080148,-0.189974,-0.108912,-0.108497,0.234440,0.244580
0.034820,-0.117027,0.312562,0.106241,0.167814,-0.048487,-0.176500,0.278553,0.042698,0.052587
-0.013901,-0.046815,0.019141,0.069452,0.045064,-0.025525,-0.027541,0.034805,-0.093297,0.009317
0.124702,-0.206821,0.315560,-0.100784,0.251223,0.093742,-0.070482,-0.154244,0.015820,-0.060963
0.021785,0.042028,0.018209,0.013804,0.009378,0.017697,0.021148,0.028474,0.032784,0.042001
-0.213807,0.167746,-0.182133,-0.091146,0.182151,0.117160,0.265592,-0.275179,-0.192120,0.091737
0.040665,0.028102,0.007322,0.048633,0.038863,0.044298,0.046353,0.052431,0.033608,0.003770
0.006580,-0.062892,0.002774,0.023766,0.034633,0.027061,0.063787,0.037371,-0.048093,-0.031215
0.015673,-0.080372,-0.060014,0.003987,0.130593,-0.014070,0.130142,-0.060743,0.058000,0.000248
-0.187138,-0.217276,-0.203340,0.320883,0.261927,0.254452,0.249806,-0.206833,-0.207982,0.161030
-0.122378,0.151082,-0.105510,-0.023237,0.018340,0.054539,0.137578,-0.050522,0.164003,0.123932
-0.007390,0.024172,0.000287,-0.012501,0.023118,0.021120,0.010203,-0.015219,0.015431,0.018698
-0.455506,0.509619,-0.399178,-0.300921,0.074720,-0.407327,0.489649,0.330981,-0.508902,0.639205
0.021457,-0.048207,0.010849,-0.003020,0.025372,-0.007574,0.025099,0.001136,-0.069647,-0.003707
-0.010302,-0.043960,-0.010362,-0.018128,0.019217,-0.021909,0.033262,-0.013498,-0.007253,-0.014072
0.022613,-0.028373,0.061864,0.064244,0.053400,0.075884,-0.016419,0.061755,0.057838,-0.016146
0.262820,0.569510,-0.163154,-0.512078,0.231515,-0.487703,-0.221759,0.428348,-0.349123,0.608337
-0.142615,-0.015060,-0.154864,-0.070605,0.233375,0.160366,0.357187,0.330842,-0.084570,-0.398661
-0.077308,0.186788,-0.142152,-0.169258,0.082204,-0.121391,0.138163,-0.134106,0.141416,0.182591
-0.015899,-0.002297,-0.009646,-0.004310,0.002581,-0.005406,-0.001225,-0.018575,-0.001220,-0.001716
0.039544,0.002373,0.020841,0.016539,0.008256,-0.000363,0.001621,-0.010680,-0.023438,-0.004996
0.043854,-0.049923,0.018535,0.043430,0.041574,0.028234,0.072858,0.027607,0.028357,-0.035233
-0.195265,0.305925,-0.161161,-0.154592,-0.035926,-0.040513,0.236102,-0.053107,-0.191690,0.346515
0.091186,0.020761,0.032004,0.035315,0.046665,0.023767,0.011365,0.021789,-0.099252,0.050731
-0.032131,-0.015216,-0.003067,-0.004998,-0.028908,-0.018805,0.013009,-0.016118,-0.035540,-0.019050
-0.069169,0.060468,-0.091768,-0.061681,0.034736,-0.053879,0.079310,-0.079345,0.131422,0.098743
0.017976,0.044023,-0.011018,-0.006959,0.036403,-0.004622,0.063562,-0.006863,0.021964,0.067648
-0.125327,0.319715,-0.212535,-0.198745,-0.061499,-0.068358,0.279312,-0.190481,-0.079475,0.315186
-0.084457,-0.242544,0.133116,-0.075754,0.163197,0.025379,0.132708,0.149728,-0.132055,-0.144624
-0.024489,-0.025459,0.055617,0.058256,0.048791,0.051407,0.041051,0.040185,-0.043843,0.006683
-0.032507,-0.021227,-0.024977,-0.018803,0.005243,-0.015133,-0.041827,-0.007104,-0.019000,-0.006124
-0.024651,0.009180,-0.016156,0.004200,0.033265,-0.006571,0.059552,-0.018916,-0.007392,0.019897
-0.190569,-0.190197,-0.265468,0.308263,0.052419,-0.178413,0.260312,0.067223,-0.425024,0.328163
0.338612,-0.309569,-0.188218,-0.036305,0.115630,-0.360453,0.177550,0.207898,-0.344118,0.201176
0.042330,0.098946,0.034200,0.008530,0.023587,-0.004174,-0.010241,-0.007187,0.077904,0.110394
0.046918,0.007754,0.004720,0.012510,-0.032902,0.021887,-0.035403,-0.000657,0.054954,-0.025023
-0.020542,0.009212,-0.076248,-0.078266,-0.012275,-0.068363,0.082271,-0.089212,0.046884,-0.001304
-0.045741,0.012063,-0.018229,-0.039864,-0.037352,-0.030892,-0.042290,-0.019719,0.003182,-0.013427
-0.213027,-0.230261,0.247790,-0.099116,0.223108,-0.249070,-0.139693,0.114942,0.263272,-0.090793
0.028205,-0.002648,0.017182,0.026393,0.024812,0.029643,0.035060,-0.000626,-0.026635,-0.028399
0.127446,-0.021115,-0.000282,-0.025103,-0.011671,-0.030611,-0.085881,-0.020726,0.094730,0.025749
0.011190,0.039363,0.000406,0.000811,0.037597,0.009640,0.017727,0.023514,0.078206,0.019753
-0.125406,-0.313736,0.123615,0.226378,0.221904,-0.148419,0.069199,-0.061334,-0.016622,-0.073544
-0.213304,-0.244752,-0.254806,0.194309,0.081392,0.097194,-0.181777,0.041233,0.154534,0.167969
0.165439,0.131438,-0.064437,-0.050230,0.080943,-0.006886,0.127697,-0.034958,-0.108772,0.166567
-0.060295,-0.088092,0.161056,0.020984,-0.053854,-0.337485,0.245246,-0.247111,0.068961,-0.060399
0.030400,0.009992,0.017735,-0.002699,0.008973,-0.001522,-0.013249,-0.001068,-0.027480,0.027819
-0.029068,-0.235913,-0.252048,0.267915,0.166663,-0.241984,0.254790,0.041251,-0.410302,0.253122
0.365377,0.201332,-0.256838,-0.270680,0.067307,-0.225820,-0.369976,0.294855,-0.196525,0.320904
-0.036772,-0.044509,-0.028521,0.000023,-0.023635,-0.033302,-0.038846,-0.050805,-0.054991,-0.048404
-0.187521,-0.039651,-0.101868,-0.056021,0.199040,-0.006948,0.175330,-0.037390,-0.143089,0.093942
0.054930,-0.012545,0.029586,0.025348,0.020111,0.016104,0.041189,0.046965,0.023906,0.012873
0.016209,-0.007614,-0.016008,-0.010558,-0.001055,-0.007734,-0.009600,0.004620,0.018754,-0.013947
-0.015001,-0.190879,-0.026774,-0.037045,0.123814,-0.153966,-0.191926,0.118004,0.299119,0.146332
0.002609,-0.017021,-0.005430,-0.001015,-0.010233,0.003156,-0.017186,-0.018001,-0.014512,-0.008084
0.087187,-0.264218,-0.048650,0.255597,-0.149092,-0.283026,0.261059,-0.115649,0.123185,0.197921
0.039340,0.014359,0.036517,0.017580,0.052056,0.014652,0.019417,0.014210,0.016616,-0.000923
-0.031524,-0.059880,0.031037,0.022063,0.012963,0.019836,0.010446,-0.007534,-0.109777,-0.024502
-0.054986,-0.200726,-0.224944,0.252235,0.089495,0.150217,-0.075443,-0.195370,0.130668,0.051831
-0.040175,-0.067379,-0.016898,-0.007390,-0.025605,-0.023953,0.000650,0.013481,-0.048045,-0.031421
-0.002951,-0.010618,0.053590,0.033016,0.014731,0.071089,0.031502,0.049370,0.025081,-0.004280
0.035816,0.034783,-0.089732,-0.086860,0.047659,-0.076247,0.089532,-0.053686,-0.131414,0.077280
-0.046305,0.010554,0.001824,-0.022970,-0.000351,-0.013657,0.029528,-0.017385,-0.064660,-0.013649
0.208364,0.194832,-0.176782,-0.089539,-0.061867,-0.095417,0.146227,-0.176858,-0.052290,0.173981
0.086846,-0.209308,0.214630,-0.038792,0.212748,-0.301273,-0.226019,0.262578,-0.206433,-0.140597
0.072548,-0.133635,-0.175672,0.095272,0.260914,0.286864,-0.054101,0.139134,-0.089845,-0.354937
-0.087533,0.116253,-0.110338,-0.100802,-0.036653,-0.117158,0.047919,-0.100775,0.185343,0.141063
0.025440,0.066011,-0.013999,-0.009568,0.063274,-0.002393,0.127947,-0.018049,-0.111897,0.070289
0.028432,-0.011146,0.010366,0.012029,0.038337,-0.001590,0.045493,0.041446,0.032820,-0.029632
0.194772,-0.240801,-0.147738,0.258239,0.131630,-0.089286,-0.200305,0.133707,0.093375,0.125196
-0.410294,-0.248886,-0.045356,0.097488,0.389091,0.025053,-0.287981,0.389343,-0.027961,0.250650
0.016279,-0.067039,-0.003907,0.015912,0.046155,0.035716,0.062823,0.030967,-0.014874,-0.031095
-0.019080,-0.003557,-0.015474,-0.007950,-0.012433,0.000152,0.011670,-0.020637,-0.018006,-0.004509
0.026325,0.024588,-0.018588,0.007322,0.027163,-0.020647,0.035074,0.084127,0.039280,0.001841
0.015145,0.025769,0.018965,0.022235,0.036468,0.016857,0.052880,0.025056,0.028527,0.000258
-0.026746,0.006576,-0.003580,0.007547,0.010155,0.005871,0.070991,0.004204,0.008332,-0.010932
0.025114,0.015843,0.018612,0.015883,0.010085,0.015599,0.027627,0.038785,-0.008764,-0.008230
-0.022762,0.024261,-0.033093,-0.045895,0.011615,-0.001946,0.057860,-0.030456,0.051433,-0.031872
0.007163,0.014552,0.018763,0.027952,0.025600,0.017796,-0.008169,0.016219,0.029774,-0.009077
0.027742,0.021341,-0.011835,0.010795,0.003972,0.025749,0.013857,0.020532,0.043951,0.020602
-0.105362,-0.091279,-0.020277,0.086570,0.010734,0.129826,0.252177,-0.058130,-0.058539,-0.118508
0.009096,0.030138,0.005999,0.001823,-0.001380,0.017740,-0.039395,0.010013,0.018462,0.032971
-0.020581,-0.257796,-0.170064,0.251036,0.165782,-0.090364,0.095979,-0.140503,0.082543,0.131959
-0.008027,0.033143,-0.027599,-0.021759,-0.040058,-0.017451,-0.034521,-0.022539,0.025077,0.015898
-0.064556,-0.045003,-0.010922,-0.010966,0.005697,0.003192,0.000607,-0.010653,-0.039925,-0.026970
-0.003853,0.050638,-0.065327,-0.057008,0.007371,-0.061145,0.018120,-0.067788,0.106563,0.091531
-0.108086,-0.066023,-0.094413,0.105872,0.021233,-0.025712,0.127376,-0.096538,0.087364,0.156639
0.164372,-0.278055,0.077967,0.042066,0.217908,-0.071554,-0.137094,-0.123153,0.189542,-0.194769
0.069318,-0.211452,0.180543,-0.091122,0.244416,-0.077000,-0.156136,0.065843,0.246439,-0.130024
0.009013,0.024121,0.019587,0.032357,0.006758,0.033619,0.002012,0.012058,-0.019653,0.033663
0.017469,0.024034,0.034051,0.020454,0.004152,0.001318,-0.017188,0.009784,-0.035620,0.009775
0.538416,-0.396915,-0.472653,-0.176999,0.554218,-0.128069,-0.198856,0.512828,-0.730122,0.438043
-0.042641,-0.019159,-0.044474,-0.041964,-0.051325,-0.033390,-0.061328,-0.030758,-0.054080,-0.063274
0.093451,-0.233849,0.095983,0.093266,0.206841,-0.186326,0.211683,-0.077075,-0.145740,-0.062154
0.135292,-0.170949,0.254705,-0.125937,0.236788,-0.121754,-0.149067,-0.048274,0.301668,-0.083839
0.098236,0.026275,-0.073188,-0.128899,-0.102649,-0.146913,-0.326629,0.097938,0.338858,0.241372
0.133817,-0.068379,0.021481,0.017280,0.124303,0.016048,0.095396,-0.026838,0.060170,-0.048642
-0.160654,-0.145210,-0.193087,0.053455,-0.000156,-0.117378,-0.140820,0.075477,0.197897,0.187786
0.040001,-0.036378,0.026747,0.018205,-0.020482,0.007983,-0.042483,0.008535,-0.105868,-0.056981
-0.041290,-0.096937,-0.014815,-0.018024,-0.008427,-0.027720,-0.017237,-0.016889,-0.022354,-0.046483
0.010033,0.007581,0.009339,0.007933,0.018475,0.024389,0.014735,-0.011454,0.008061,-0.004250
-0.048294,-0.045344,-0.028123,-0.036903,-0.023480,-0.026497,-0.017934,-0.025088,-0.007995,-0.031235
0.033883,-0.138066,-0.140132,0.014788,-0.034864,-0.143638,0.050262,-0.146497,0.095083,-0.004535
-0.163039,0.604906,-0.295403,-0.079416,-0.132055,0.057114,-0.227351,-0.264189,0.410803,0.393327
0.052566,0.064130,0.035722,0.027463,0.040376,0.036403,0.039229,0.047867,0.069754,0.059017
0.004607,0.008386,-0.009860,-0.011286,-0.016667,-0.002662,-0.053619,-0.028742,0.097915,0.048652
-0.006727,-0.101751,-0.130292,0.125814,-0.216274,-0.443355,-0.041704,0.569002,-0.305561,0.370986
0.142805,-0.264374,0.091438,0.016152,0.168532,-0.142405,0.186706,-0.152126,0.117067,-0.188292
0.000608,0.000361,-0.005587,-0.009447,-0.011710,-0.016887,0.004984,-0.001990,0.007164,-0.016535
-0.179232,0.308807,0.534734,-0.471809,0.554454,-0.395014,0.664966,-0.408635,-0.456294,-0.374444
-0.112762,0.282015,-0.230956,-0.029483,-0.139471,-0.056653,0.245540,-0.232484,0.097214,0.189816
0.007325,-0.030982,0.022198,0.030294,0.041998,0.024371,0.016400,0.020828,-0.036348,-0.018271
0.006517,0.051017,-0.021361,-0.019447,0.007480,-0.010748,-0.025502,-0.004742,0.046773,0.008924
0.023432,0.055905,-0.042515,-0.042916,-0.043553,-0.019359,-0.048987,-0.051039,0.011194,0.040259
-0.011968,0.028353,-0.029708,-0.030002,-0.039657,-0.031153,-0.030397,-0.027751,-0.020833,-0.006740
0.004888,0.074158,0.007170,0.026431,0.013791,0.022657,0.005201,0.024299,-0.021610,0.006278
-0.020903,-0.004685,-0.017833,-0.020174,0.062510,-0.007418,0.062177,-0.017901,0.056845,-0.015139
-0.037224,-0.056064,-0.022875,-0.025218,-0.007279,-0.032513,0.010803,-0.027291,0.010281,-0.007164
-0.258129,-0.012915,-0.104280,-0.134441,0.256843,-0.088694,0.263016,0.092462,-0.105497,0.290860
-0.024136,-0.223372,0.391295,0.233795,0.298517,0.049014,-0.217127,-0.241648,-0.050817,-0.114176
0.081148,0.177577,-0.218219,-0.237219,-0.081671,-0.163097,-0.019032,-0.211397,0.117232,0.144823
0.176575,-0.105657,-0.133633,-0.068619,0.013237,-0.107270,-0.176281,-0.003429,0.244125,0.162605
-0.011358,-0.031269,-0.007608,0.011900,-0.011182,-0.008388,-0.001346,-0.011186,-0.042387,-0.033958
-0.054018,0.088077,-0.042960,-0.043932,0.063186,-0.030036,0.114560,-0.055050,-0.100773,0.093382
-0.028763,-0.016183,0.030224,0.061673,0.002195,0.052720,-0.005992,0.039430,-0.059300,0.030128
-0.016125,-0.014096,0.015752,0.013112,0.022137,0.000042,0.020078,0.005226,-0.040088,-0.004836
0.000716,0.064572,-0.015501,-0.013153,-0.033006,-0.000600,0.009670,0.001283,-0.022851,-0.000475
0.128184,0.432168,0.219896,-0.379642,0.173030,-0.283159,-0.181032,-0.249968,0.384936,0.051597
0.232825,-0.028456,0.122106,-0.053489,0.020047,-0.170206,0.176264,-0.128735,0.277939,-0.056685
-0.280171,-0.222927,-0.263794,0.270475,0.218702,0.067770,0.260598,-0.264000,0.043522,0.296833
-0.045043,-0.038951,0.019086,0.019649,0.042325,0.019116,0.011799,-0.020627,-0.067085,-0.028093
0.029925,0.078619,-0.061492,-0.021327,-0.046863,-0.066850,0.023148,-0.137691,0.136035,-0.000825
-0.010081,-0.015867,-0.022866,-0.022171,-0.019498,-0.014408,-0.009296,-0.017239,0.007173,-0.000505
-0.037630,0.181345,-0.064150,-0.055643,0.050102,0.007127,0.157924,-0.041031,-0.006317,0.137388
-0.011321,0.031489,-0.055331,-0.051651,-0.006502,-0.043663,0.019904,-0.063093,0.013675,0.022815
-0.020152,0.036613,-0.097618,-0.100227,0.013939,-0.071048,0.050864,-0.091909,-0.151194,0.044873
0.035886,-0.013606,0.034363,0.019761,0.042469,0.024695,0.055960,0.011782,-0.017385,0.014274
-0.005287,-0.051795,0.008757,0.017824,0.035066,0.006602,0.022513,-0.014048,-0.040821,-0.008255
0.040426,-0.038370,0.021173,0.021812,0.026487,0.016264,0.041665,0.021164,-0.105544,-0.009975
0.355962,0.544652,-0.151669,-0.046470,-0.280844,-0.231628,-0.129784,-0.289094,-0.183253,0.624958
0.040573,-0.013079,0.010981,-0.033864,-0.011874,-0.031090,-0.027866,-0.013667,0.002039,-0.006223
-0.027081,-0.041885,0.011178,0.006027,0.043547,0.002932,0.034686,0.028483,-0.086953,-0.026000
-0.171359,0.156479,-0.063931,-0.197973,0.181104,-0.048733,0.252251,-0.171248,-0.109216,0.027980
0.002386,0.406439,-0.200946,-0.239820,-0.163604,-0.400041,-0.342320,0.470026,0.118828,0.491643
0.018789,-0.226553,0.296989,0.133615,-0.038749,-0.235788,0.226670,-0.036183,0.230542,-0.192046
0.247469,-0.331628,0.206820,0.047412,0.294098,-0.167874,0.206265,0.024944,-0.144970,-0.203428
0.003367,0.003091,0.024196,0.012981,0.000527,0.014571,0.001754,0.012453,-0.038769,-0.007466
-0.006069,0.409404,-0.199004,-0.224704,-0.184079,-0.213244,0.009012,-0.109607,0.339351,0.427841
0.051243,0.019819,0.057006,0.033534,0.024001,0.012289,0.024806,0.012896,-0.030667,0.009075
0.132101,-0.224925,0.235080,-0.147231,0.190700,-0.210912,0.154281,-0.216834,0.288953,-0.152303
-0.047765,-0.265860,-0.065795,0.046696,0.156175,-0.105804,0.080761,-0.128711,0.091600,-0.036585
0.065945,-0.174289,0.174500,-0.184341,0.124471,0.208960,-0.287367,0.211050,-0.014802,-0.193583
-0.021866,-0.003764,-0.009627,0.009875,-0.000708,-0.003572,0.022918,0.002772,-0.077204,-0.036203
0.091057,-0.122727,-0.049758,-0.002080,0.141492,-0.054763,-0.084854,-0.103327,0.119109,0.022796
-0.027374,0.026460,-0.003548,0.001125,0.050757,0.015252,0.093773,-0.006296,-0.046429,0.049463
-0.006089,-0.067713,-0.013228,-0.023695,-0.028110,-0.025387,-0.030776,-0.010156,0.002723,-0.023401
0.291061,0.339844,-0.027196,-0.336454,-0.221610,-0.512943,-0.267825,-0.229474,0.458602,0.449370
0.005398,-0.079934,-0.157118,0.018754,0.057376,-0.119900,0.187410,-0.142254,0.173808,0.110124
-0.115784,0.059895,-0.106556,-0.074642,0.000870,-0.061869,0.099414,-0.090672,0.113162,0.056682
0.016631,-0.008598,-0.009554,-0.000228,0.001660,0.005082,0.016340,0.010278,0.026158,0.028425
-0.401444,-0.190001,-0.190542,0.264088,0.295391,0.251617,-0.397442,0.226568,0.067362,-0.052409
-0.179630,-0.197134,0.329569,-0.246024,0.245373,0.352056,-0.072052,-0.227468,-0.018647,-0.099688
0.037347,-0.017916,-0.040783,-0.021332,0.018876,-0.033418,0.049168,-0.051195,0.074613,0.041300
0.061470,-0.053497,0.034194,0.077394,-0.014387,0.027663,0.013279,0.071911,0.058503,-0.062412
0.013439,0.030399,0.023559,0.028195,0.053776,0.029895,0.063688,0.019750,-0.017491,0.016757
-0.011477,-0.014675,0.000563,-0.009868,-0.006568,-0.011898,0.001565,0.028228,0.037369,0.013392
-0.026761,-0.023363,-0.012504,0.002892,0.004335,0.006922,0.011631,-0.015429,-0.038276,-0.044918
0.004310,-0.031490,0.052631,0.017368,0.037451,0.053363,0.022509,0.012376,-0.040735,-0.006777
0.120809,0.508387,-0.150511,-0.219568,-0.202411,-0.344201,-0.111400,0.258532,-0.240511,0.493671
-0.036803,-0.044528,-0.009219,-0.004369,-0.017603,-0.011511,0.002370,0.002171,-0.032714,-0.030766
0.064651,0.124447,-0.060994,-0.099097,-0.006031,-0.051354,0.019274,-0.079735,0.153957,0.113753
0.431632,-0.255321,0.400066,-0.382542,0.434461,-0.373104,-0.187316,-0.206113,0.418740,-0.404733
0.032610,0.002783,0.031339,0.042807,0.032943,0.039665,0.041837,0.040493,-0.012228,-0.010560
0.006636,0.249681,-0.110184,-0.125634,0.159403,-0.073299,0.297679,-0.079484,-0.139367,0.225796
-0.298993,-0.280965,-0.194193,0.171878,0.318216,0.000206,0.160123,0.238365,-0.274426,0.211828
-0.071598,-0.087110,-0.064361,-0.066950,-0.042874,-0.071661,-0.066190,-0.063810,-0.063903,-0.077655
0.034987,0.013519,-0.037358,-0.037534,-0.026895,-0.024980,-0.071922,-0.007567,0.078485,-0.020997
0.045122,0.087650,-0.094002,-0.148020,-0.005614,-0.091192,0.078214,-0.107723,0.178269,0.030318
0.031437,0.006839,-0.000887,-0.017954,-0.013382,-0.011357,0.007219,-0.028622,0.031575,0.030598
-0.047213,0.002288,-0.017575,-0.023287,-0.019349,-0.013560,0.033234,-0.020906,-0.072503,-0.004261
0.026544,0.040475,0.057327,0.043316,0.045658,0.037245,0.096014,0.031343,0.055349,0.041166
-0.066554,0.085029,-0.061352,-0.042316,0.006388,0.052396,0.042886,-0.021665,0.116870,-0.010822
-0.003448,0.111215,-0.107843,-0.131477,0.199080,-0.042692,0.196966,-0.072986,-0.184638,0.127187
0.001054,-0.023316,0.019262,0.003814,0.034596,0.013018,-0.007700,0.008557,0.005353,0.011734
-0.007190,-0.166560,0.191228,-0.017114,-0.037156,0.213528,-0.117121,-0.011283,0.061279,0.041241
0.022195,-0.226168,-0.089053,0.001142,0.138736,-0.184514,-0.270712,0.189427,0.264615,0.157302
-0.014367,-0.055413,0.244012,-0.217703,0.081914,0.051961,-0.256403,0.234386,0.106235,-0.048859
-0.175901,-0.217508,-0.125146,0.025590,0.319521,0.230789,-0.192828,0.249376,-0.175193,0.139430
0.300476,0.163870,-0.147977,-0.195896,0.026423,-0.341112,-0.294925,-0.260609,0.396950,0.392046
0.128476,-0.291804,0.187071,0.057382,0.178780,-0.237740,0.213885,-0.211061,0.185456,-0.224180
-0.075971,0.210489,-0.066313,-0.070114,0.115877,-0.119132,0.306005,-0.048862,-0.197275,0.257324
0.000183,-0.033133,-0.048598,-0.023261,-0.025971,-0.018016,-0.026246,-0.023050,0.025373,-0.030415
0.088804,-0.152704,-0.044134,0.191092,0.098209,-0.014958,-0.172041,-0.107780,0.189364,0.164105
-0.054968,0.079090,-0.038482,-0.026654,0.046074,0.013009,0.114861,-0.051955,-0.078438,0.060404
0.000378,0.001029,-0.006047,0.000688,0.015299,-0.001667,0.022313,-0.000983,-0.006250,-0.004256
0.050634,-0.011623,0.029542,0.024012,0.040272,0.015172,0.044218,0.045526,-0.025748,-0.006042
0.074078,-0.149436,0.071092,-0.032519,0.153809,-0.063150,0.122850,-0.072259,-0.023591,-0.110216
-0.015068,-0.205219,0.183315,0.027099,-0.159767,0.003331,0.184937,-0.024537,0.098809,-0.190531
-0.023204,0.039984,0.028057,-0.001132,-0.027051,0.016216,0.055258,0.008792,0.162280,-0.039807
-0.077996,-0.162427,-0.058352,0.130245,0.118304,0.068106,0.106632,-0.133523,0.173696,-0.115577
0.015133,-0.029916,-0.015624,-0.009169,0.054277,0.007983,0.040287,-0.016994,0.047232,-0.018440
-0.142593,-0.343945,-0.199993,0.346242,0.358760,0.218481,-0.271127,0.048331,-0.014663,-0.145545
0.030934,-0.294492,0.164334,0.188983,0.252130,-0.144973,0.235089,-0.227090,-0.048981,-0.258251
0.029557,0.094213,0.006954,0.007997,0.002600,0.002334,-0.004788,0.004380,0.041046,0.063618
0.004815,-0.223443,-0.184255,0.308505,0.254634,0.191526,-0.135437,0.128525,0.016673,-0.137399
-0.110650,0.054533,-0.126014,-0.077934,-0.036151,0.035498,0.053947,-0.102540,0.101397,0.001617
0.031743,-0.078310,-0.016811,-0.003910,0.110616,-0.068229,0.118939,-0.084532,0.098884,-0.020832
0.224677,-0.175426,-0.190422,0.296457,0.007676,-0.129149,-0.188851,-0.124258,0.213105,0.300636
0.033123,-0.054440,-0.045436,-0.020686,0.089743,-0.027438,0.105639,-0.042888,0.102067,0.007839
-0.309891,-0.352097,0.329496,0.027821,0.260201,-0.296126,0.243796,-0.174275,0.237559,-0.248248
-0.003406,0.017167,0.003572,-0.018891,-0.007751,-0.031522,-0.058005,-0.034316,-0.028042,-0.035727
0.264038,0.222765,-0.234860,-0.190384,-0.141199,-0.169992,0.212876,-0.257309,0.110830,0.186248
-0.032538,0.042864,0.014499,0.005542,0.038275,0.007240,0.003256,0.020608,0.034643,0.031471
-0.012337,-0.049877,-0.021515,-0.014926,0.048401,-0.017480,0.035449,-0.012340,0.026573,0.036620
0.036171,-0.174138,-0.206407,0.191541,0.157827,-0.094071,0.060361,0.013139,-0.170064,0.177162
-0.201457,0.118288,-0.127733,-0.095252,0.091690,-0.031794,0.187557,-0.096621,0.157306,0.168125
0.026987,0.023903,0.028503,0.037914,0.021011,0.034913,0.031638,0.014545,-0.028313,0.018878
0.055209,-0.140941,-0.163234,0.061933,-0.084995,-0.170208,-0.153053,0.051037,0.250795,0.191820
-0.004936,-0.023083,0.021806,0.014384,0.016062,0.012259,0.016131,0.008536,-0.036173,-0.033100
0.022012,-0.312201,-0.107329,0.402294,0.155368,0.014355,-0.264450,0.374236,0.209187,-0.212433
-0.060944,-0.083219,-0.018984,-0.024906,-0.015630,-0.027128,-0.031942,-0.018516,-0.063149,-0.070003
-0.164661,-0.007159,-0.166801,-0.049870,-0.013498,-0.082573,0.146812,-0.145871,0.093601,0.041159
0.177863,-0.358086,-0.066778,-0.042705,-0.190449,0.039692,-0.511222,0.407691,0.349217,-0.160399
0.016850,-0.004436,0.021637,0.018537,0.003444,0.010619,0.021943,0.018016,0.035827,0.033892
0.109623,0.172743,-0.160199,-0.107603,-0.008368,-0.143381,-0.043654,-0.094068,0.113195,0.209383
0.210872,0.424914,-0.203655,-0.385637,-0.150761,-0.472249,-0.393508,-0.087053,0.458058,0.483786
0.105972,0.583823,-0.197193,-0.304083,-0.358527,-0.446439,-0.184595,0.123433,0.207596,0.606628
-0.033926,-0.074537,-0.036316,-0.006378,0.021631,-0.024282,0.047184,-0.044193,-0.024440,-0.009132
0.014701,-0.056359,-0.005309,0.019049,0.007936,0.013556,0.010122,0.028588,0.073757,0.005443
0.171740,-0.278714,-0.185856,0.245909,0.196148,-0.055390,0.193082,-0.222762,-0.025723,-0.003936
-0.032385,-0.013359,-0.019367,-0.009579,-0.021728,-0.026194,-0.026594,-0.034313,-0.004377,-0.014466
0.004140,0.088618,0.048438,0.038173,0.035468,0.032899,0.015582,0.063564,0.071852,0.046678
-0.294141,0.002898,0.121467,0.034594,-0.231908,-0.360816,0.130973,0.023182,0.215553,0.252505
-0.179485,-0.091942,0.070916,0.060282,0.116326,0.112660,-0.121398,-0.026555,-0.070910,-0.035879
-0.105293,-0.176696,0.072474,0.082950,0.139663,-0.062157,0.129653,-0.137159,-0.018453,-0.151186
0.053880,0.070125,0.013329,0.009309,0.019517,0.023738,-0.050263,0.040060,0.036757,0.018467
0.622024,-0.240651,-0.197467,-0.166644,-0.112903,-0.174030,0.155804,-0.354063,0.452948,-0.284423
-0.000983,0.091695,-0.002590,0.000921,-0.008547,-0.001264,0.012730,0.027658,0.029282,0.023711
-0.091539,0.012540,-0.109930,-0.032401,0.123420,-0.030923,0.243773,-0.073467,0.139902,0.015074
-0.014557,-0.046342,-0.026562,-0.009487,-0.031936,-0.009095,-0.048664,-0.031228,-0.042314,-0.047131
-0.111877,0.274782,-0.152878,-0.196867,0.081899,-0.129985,0.170205,0.071888,-0.161022,0.256965
-0.087198,0.162658,-0.113343,-0.064688,-0.087430,-0.010708,0.136155,-0.127213,-0.078362,0.085949
-0.030307,0.037556,-0.021663,-0.007796,-0.004854,-0.008134,0.005098,0.006555,0.012755,0.012179
0.028359,-0.024182,0.017760,0.017213,0.032277,0.020118,0.036981,0.017883,0.038872,-0.009520
-0.002443,0.037366,-0.011108,-0.000694,-0.016472,-0.006806,0.000722,0.000865,0.025997,0.015856
0.141759,-0.028490,0.060806,-0.018844,-0.069562,-0.006262,-0.035474,0.226387,-0.156177,-0.055833
-0.018725,-0.211244,0.259936,0.193551,0.218133,0.325250,-0.163739,-0.207706,-0.065042,-0.168153
-0.282939,0.023904,-0.143275,-0.104622,0.289821,0.224925,0.312665,-0.036897,-0.249903,0.123323
-0.027220,-0.095667,-0.072806,0.014694,0.073042,-0.049492,0.116645,-0.078358,-0.013590,0.004058
0.507797,-0.273365,-0.272081,-0.027872,-0.173037,-0.312741,-0.308040,-0.219545,0.328190,0.256496
-0.017245,-0.029833,-0.021070,-0.012476,0.006039,-0.020081,-0.053298,-0.006795,0.103147,0.008303
0.243066,-0.223357,0.261665,0.226241,-0.109545,-0.087817,-0.081091,0.288699,0.009988,-0.266333
0.012433,0.041108,0.005011,0.012695,-0.004038,0.004964,-0.020925,0.005398,-0.007201,0.044675
0.051839,0.046332,-0.046753,-0.051591,-0.022345,-0.044363,-0.002598,-0.063356,-0.056713,0.051014
0.315106,-0.252220,-0.262388,0.324712,0.251964,0.257613,-0.237222,-0.223591,-0.016520,-0.171362
-0.032409,-0.094398,-0.058672,-0.043424,-0.000113,-0.052894,-0.000741,-0.063038,-0.026136,-0.021881
-0.046464,0.158351,-0.149769,-0.135346,-0.003789,-0.085391,0.029297,-0.121978,0.178795,0.141024
0.020602,0.037228,-0.031679,-0.001835,0.054165,-0.010018,0.072081,-0.027680,0.077493,0.055854
0.018010,-0.049800,0.054431,0.038918,0.051813,0.025932,0.000214,0.011017,-0.048805,0.005749
0.045003,0.044049,-0.027411,-0.020901,0.049526,-0.022169,0.020535,-0.001037,0.091605,0.085184
0.076285,-0.016369,0.061458,-0.020524,0.106358,0.157026,-0.105600,-0.068030,-0.012198,-0.119209
-0.312980,-0.264426,-0.292850,0.193088,0.354705,0.291015,0.324464,0.173035,-0.432120,0.179686
0.039855,0.104828,0.011891,0.009750,0.003133,0.028216,-0.055781,0.035365,0.097677,0.060498
-0.046439,0.211086,-0.145081,-0.146037,0.043997,-0.108386,0.160910,-0.111933,-0.060542,0.202099
-0.204369,-0.095835,-0.186311,0.163810,-0.193929,-0.219153,0.035231,-0.154873,0.205077,0.296104
-0.180348,0.163718,-0.218349,-0.233867,0.206195,0.143377,-0.342846,-0.258070,0.488350,0.400216
0.021956,0.046843,0.021882,0.026569,0.013114,0.033779,0.007325,0.015277,0.018622,0.046296
