0.025603
0.013244
0.011442
0.008019
0.010764
0.002317
0.000562
0.024915
-0.002425
0.009897
-0.003744
-0.010329
0.000408
0.007501
0.012377
0.008800
-0.001530
0.023258
0.006236
0.007511
0.019981
0.010610
0.017189
0.019773
0.023743
0.002911
0.004666
0.028558
0.017917
0.018242
0.004541
0.012444
-0.000461
-0.015001
0.034081
0.015715
-0.004743
0.007419
-0.002650
0.015815
0.015192
-0.011838
0.006623
0.004565
-0.045861
-0.025222
-0.052578
-0.014277
0.009154
0.009712
0.007155
0.019528
0.009853
0.003274
0.008674
-0.003883
0.004650
-0.018120
-0.045739
-0.009270
0.003846
-0.011870
0.017906
0.007536
0.013977
-0.039692
0.004706
0.013431
-0.000342
-0.031088
0.006371
0.000941
0.003306
0.008196
0.003508
0.008940
0.019170
-0.013556
-0.002262
0.004291
-0.020593
-0.006939
0.001097
0.027961
0.000451
0.000770
0.008904
0.015967
0.018862
-0.005090
0.012805
-0.016000
0.005685
0.018425
-0.005315
-0.011590
0.019261
0.006239
-0.013983
0.032914
0.025810
0.021234
-0.012336
0.009223
-0.012959
0.008369
0.025953
0.005801
0.002559
0.020412
0.009015
0.000033
0.003456
0.010266
0.004939
-0.046197
0.012750
-0.001428
0.008289
-0.006426
0.011255
0.010193
0.030614
0.015958
0.008658
0.007018
0.019020
-0.000607
0.021016
0.002953
0.004189
0.003990
0.009050
0.037120
-0.007330
0.011458
-0.022891
0.009765
0.024001
-0.000620
0.016168
0.017489
0.018618
-0.028076
-0.002844
0.003839
-0.019322
0.003764
0.005431
0.014846
-0.011005
0.005641
-0.043377
0.013952
-0.003546
0.014068
-0.014494
0.005532
0.015414
0.031685
0.004756
0.008822
0.000257
0.024130
0.002904
0.001334
0.012550
-0.013556
0.002419
0.008696
0.018891
0.008519
0.002217
0.014863
0.004527
0.028036
0.003753
0.008735
0.000406
0.016287
0.005000
-0.012424
0.004210
0.007584
0.014916
0.011357
0.012496
-0.015138
0.007921
-0.025286
0.006986
0.005576
0.020646
0.016653
0.015813
0.000758
-0.001604
0.024257
0.012879
0.024069
-0.007525
0.012967
0.012865
0.002415
0.003558
0.007521
0.009469
-0.035361
-0.012754
0.018772
-0.026029
0.016890
-0.010990
0.021014
-0.013310
-0.030890
0.000600
0.026133
0.011037
-0.005307
0.011915
0.010595
0.052418
0.008626
0.016695
0.009818
0.016423
0.007735
0.006530
-0.007041
-0.020243
0.043879
0.005220
-0.004089
0.006980
-0.010851
-0.004359
0.005640
0.021575
0.019385
-0.016011
-0.029095
-0.001997
-0.002925
-0.048009
-0.002648
0.010286
0.015287
-0.000623
0.006413
0.009128
0.002551
0.008824
0.022709
0.016669
0.007363
0.000391
0.008470
0.009835
0.003309
0.019058
-0.076603
-0.009094
-0.000710
-0.020255
0.020423
0.014424
0.022305
-0.016414
-0.011312
-0.004281
0.012340
0.015944
0.018699
0.001709
0.002695
0.013601
0.004491
0.016452
-0.021115
-0.000993
0.004112
-0.022977
0.016423
-0.001406
-0.006075
0.006403
0.002918
-0.041181
-0.015243
-0.008423
-0.010982
0.008696
-0.007420
0.008435
0.003393
0.012579
-0.001972
-0.005630
-0.027399
-0.028706
0.006584
0.011771
0.007167
0.022779
0.010804
0.007347
0.012962
0.006571
0.024286
0.011631
0.022386
0.007902
0.007845
0.009129
-0.032645
0.008059
0.008365
0.030489
0.017239
0.006899
0.012375
-0.019381
0.018572
-0.008700
0.005154
0.008216
0.016362
0.010803
0.012637
0.011918
0.001445
0.012309
0.011734
0.001441
-0.001385
-0.024843
0.003880
0.011478
0.011676
0.025291
0.003762
0.010479
0.014437
0.008001
0.001615
-0.004891
0.001859
-0.005683
0.010611
0.002109
0.012883
0.015269
-0.010142
-0.017506
0.004399
0.020700
0.013512
-0.001987
0.008771
0.008730
0.022816
0.012738
0.004931
0.004947
0.006753
0.014127
0.010996
0.000384
0.008604
-0.000985
-0.033759
-0.010239
0.014949
-0.019036
0.012169
0.014831
-0.051034
0.019716
-0.015779
0.011757
0.012333
-0.017770
0.001273
0.004465
0.018889
0.014035
-0.000372
0.012991
0.017277
0.016866
-0.063725
0.009202
0.015614
0.015459
0.028771
0.006003
0.002971
-0.037028
0.007322
0.008307
0.002506
-0.005866
0.014515
-0.010884
0.007256
0.015930
0.008693
0.010918
0.004664
0.017236
0.004918
-0.007316
0.004377
0.005294
-0.025695
-0.001675
-0.017140
-0.025275
-0.003729
0.008847
-0.000528
0.030357
0.043363
0.025013
0.013212
0.004794
0.010565
-0.015284
0.004148
0.006420
-0.005602
-0.015658
0.005703
0.011944
0.014120
-0.010955
0.006182
-0.008083
0.006432
0.000116
-0.002527
-0.007503
0.014833
0.017196
0.018708
0.004332
-0.055721
0.004485
0.000267
0.012213
0.016754
-0.034189
0.015320
-0.047420
0.001012
-0.006489
0.002896
0.014369
-0.025856
0.003819
0.010621
0.011667
-0.002292
-0.048342
0.000587
-0.004227
0.018336
0.019271
0.005274
0.002208
0.000316
-0.011617
0.011166
0.005302
0.021102
0.002459
-0.033712
-0.004449
0.011884
0.014507
0.010202
-0.001795
-0.046136
-0.005195
0.005637
-0.005261
-0.014768
0.005696
0.017327
-0.005070
0.017305
0.002415
0.000064
-0.013830
-0.011064
-0.027726
0.010519
-0.004799
0.015733
-0.002905
-0.040986
0.004827
-0.026677
0.009052
0.008065
0.018051
0.020367
0.011239
0.003719
0.009319
0.030855
