0.012647
-0.020012
-0.117550
0.001242
-0.074070
0.026823
-0.052243
0.081310
0.098042
-0.021838
0.050796
-0.025913
0.015689
-0.128416
0.068375
0.049080
0.124025
0.016550
0.032582
-0.006617
0.058583
0.080500
-0.050545
0.010550
0.060704
0.014343
-0.044093
0.015813
-0.026982
0.031465
-0.011208
-0.004984
-0.081922
0.038512
-0.075669
-0.148493
-0.058100
0.021351
-0.039561
-0.033147
0.278262
0.061822
-0.190485
-0.029121
-0.054779
0.031577
-0.008845
0.052501
0.029125
-0.135623
0.067467
0.109762
0.175299
-0.078815
0.142950
-0.041555
0.088532
-0.051980
0.070688
-0.018214
0.158892
0.081763
0.139986
-0.017316
-0.062655
-0.057017
0.160149
0.003155
-0.004842
0.114924
0.265234
0.175610
0.019329
-0.082514
0.065973
0.023280
0.154445
0.080595
-0.101137
0.100569
0.041276
0.069428
-0.043306
-0.190404
-0.091765
0.061943
0.020924
-0.160936
0.115353
0.114412
0.150567
0.069983
0.192443
-0.021940
0.139109
0.152380
0.094936
0.039060
-0.106064
-0.055985
0.083524
0.147401
-0.059361
-0.101522
0.020887
-0.203286
0.111925
-0.051123
0.176693
0.181702
-0.044721
-0.022901
0.061739
-0.026346
-0.030938
-0.006274
0.065824
-0.017817
0.076089
0.123758
-0.047610
-0.038639
-0.048113
0.011341
0.038374
0.175631
0.084261
-0.157424
