-0.021781
0.000716
0.003194
-0.027538
0.008956
-0.015632
-0.019796
-0.026521
0.041865
0.030491
0.035241
0.002062
0.003903
0.004353
0.014338
0.001306
-0.028391
-0.008362
0.017546
-0.028039
-0.016799
-0.017736
0.037149
0.026907
-0.075971
0.039107
-0.002721
-0.006477
-0.019059
-0.003395
0.004275
0.014867
0.009757
-0.026094
-0.027303
0.013351
-0.015218
0.000529
0.016101
0.003983
0.020657
0.005457
-0.031508
-0.020312
0.008025
0.010715
-0.022082
-0.039005
0.012852
0.010342
-0.012702
-0.020199
0.006825
0.028727
-0.007148
-0.014760
-0.009491
0.002088
-0.010237
-0.020197
-0.008479
0.012058
-0.000312
-0.037998
-0.009449
-0.017480
-0.004755
-0.000343
0.027408
-0.003882
-0.024719
0.016500
0.014606
-0.012931
-0.034007
-0.005715
0.019464
0.010318
-0.001840
-0.029629
-0.012659
-0.020957
-0.032075
0.003830
-0.013870
0.002310
0.009226
0.004898
-0.022840
-0.009235
-0.019311
-0.103290
-0.001381
-0.015922
-0.003297
-0.010401
-0.010247
0.001430
-0.028801
-0.023988
-0.024854
0.010419
-0.013471
0.019892
0.003738
-0.037697
0.007614
0.002981
-0.012894
-0.021174
-0.013157
0.007617
0.027754
-0.004392
-0.008560
0.011790
0.000083
0.063619
-0.010197
0.008622
0.019953
-0.033078
0.006601
-0.003645
0.007047
0.061990
-0.020503
0.010186
-0.009736
-0.024756
-0.053367
-0.018703
-0.038680
0.042844
0.016871
-0.010214
-0.026243
0.015480
0.003444
-0.013907
0.002082
-0.003352
0.019761
0.030112
0.002076
-0.012818
-0.016987
-0.007169
0.066933
0.006584
-0.010853
-0.011263
0.021628
-0.010654
-0.015610
0.043998
-0.005248
-0.020025
-0.021373
0.042246
0.004440
-0.017545
-0.017156
-0.002688
-0.028359
0.001063
0.006379
0.009283
0.003817
0.002750
0.003144
-0.008394
0.044570
-0.005945
0.005058
-0.001179
-0.059355
0.011104
-0.014340
-0.019137
-0.030575
-0.038020
-0.010435
-0.027427
-0.004654
-0.007316
-0.015331
-0.011275
-0.010163
-0.011093
0.019885
-0.000427
0.000000
-0.012535
0.005504
0.012491
-0.001033
-0.026616
0.003703
-0.027379
0.007392
-0.014981
-0.017245
-0.003236
0.005605
0.012307
-0.013732
0.041265
0.005280
-0.021079
-0.012954
-0.029931
0.003948
-0.018072
0.035237
-0.010081
-0.013744
0.002382
0.025936
-0.022114
-0.012835
0.023743
0.019315
0.026005
0.062575
-0.001286
-0.001042
-0.044719
-0.001141
0.004938
-0.012188
-0.018296
-0.014917
-0.020188
0.001218
-0.053075
-0.021266
-0.030768
0.017222
-0.033975
0.049297
-0.000265
0.007242
0.002468
0.004457
-0.002629
0.026330
-0.019075
0.033064
-0.009091
0.000341
-0.014813
-0.025689
0.000250
0.000868
-0.008938
-0.021357
0.047315
-0.032322
-0.017307
-0.031460
0.061446
-0.000150
0.020884
-0.029872
-0.034858
-0.023605
0.009356
-0.032034
-0.049563
0.009075
0.022755
0.004512
0.012078
-0.037055
-0.014592
0.005360
0.009918
0.018305
-0.017514
-0.018479
0.001583
-0.068695
0.013026
-0.005579
-0.061843
-0.034294
-0.014250
0.011119
0.000910
0.006226
-0.014977
0.009902
0.032482
-0.017429
0.005463
-0.014731
-0.012209
0.008184
-0.025753
0.004580
-0.034878
-0.019676
0.000899
-0.009149
-0.021638
0.033753
-0.041045
-0.001275
0.019592
0.021166
0.002536
0.033633
-0.032479
0.006596
0.026321
-0.014139
-0.019730
-0.024729
-0.010144
-0.015030
-0.040675
-0.007597
-0.009420
-0.054285
-0.014553
-0.002709
0.005541
-0.003380
-0.003484
0.006430
-0.002564
0.009717
0.008771
-0.005592
-0.037990
0.059853
-0.036504
0.011162
0.005857
0.004128
-0.002733
0.006749
0.003445
-0.021539
-0.017258
-0.018201
-0.002030
0.015227
-0.013480
-0.016527
0.025774
0.012325
-0.008251
0.062192
-0.009047
-0.025366
-0.053231
-0.002025
-0.041472
-0.009897
0.000960
-0.015429
0.004818
0.001270
0.014386
-0.001633
-0.020696
0.013732
-0.024791
-0.015077
-0.054747
0.031001
0.010079
0.002239
-0.005233
-0.002599
-0.012080
-0.005817
0.031119
0.023199
-0.030554
-0.019506
-0.008650
-0.002103
-0.020896
-0.059985
0.027877
0.026965
0.011009
0.019771
-0.000308
0.008172
-0.015492
0.009975
0.003934
0.012088
-0.004156
0.003585
0.018039
-0.014843
0.022116
-0.004006
0.003453
-0.007064
0.040749
0.032598
0.024224
-0.015198
0.000811
-0.008479
-0.023589
-0.005978
0.030642
-0.017970
0.018138
0.036605
0.000661
0.016786
0.014681
-0.006717
0.006551
-0.000454
-0.022939
-0.023681
-0.038598
-0.007417
0.019684
-0.010198
0.003807
0.010502
0.026962
0.014850
0.014930
0.007969
0.015941
-0.020287
-0.001278
0.004670
0.003990
-0.009060
0.002683
0.006802
-0.008990
0.005181
-0.010765
-0.008411
0.008461
-0.005630
0.002999
0.007302
0.002694
0.005686
0.000368
0.013775
-0.080450
-0.002155
-0.033432
0.011804
0.006120
0.014659
-0.018768
0.007335
-0.039373
0.000263
-0.020605
-0.013376
0.032452
-0.010257
0.031043
0.022349
0.039788
0.026252
-0.018389
-0.006945
-0.020713
-0.014882
0.004783
-0.023189
-0.001165
-0.033277
-0.025177
-0.029007
0.011715
-0.035736
0.016536
-0.007012
-0.018559
0.005304
-0.014786
0.014972
0.004282
0.014853
-0.001451
-0.012993
-0.020023
0.042204
-0.062678
0.006484
-0.004210
0.007706
0.004447
0.003270
-0.016767
0.003797
0.002288
0.014686
-0.018814
0.012765
0.008662
0.002671
-0.056483
