-0.065474
-0.068951
0.083269
-0.012142
0.036716
0.010292
0.033287
-0.052828
-0.053083
0.019559
0.041700
0.012379
-0.012662
-0.021274
-0.032350
-0.121564
0.024159
0.027547
0.027725
0.008957
-0.019709
0.058657
-0.042289
0.039098
-0.066246
-0.040405
0.014632
-0.060668
0.002091
-0.116128
-0.050514
0.097572
-0.031725
-0.016509
0.074328
-0.029025
0.007951
-0.075117
0.059694
-0.009137
-0.154466
0.017741
-0.013742
-0.024386
-0.059740
-0.038174
-0.014960
0.065541
0.002446
0.032600
-0.019032
-0.161725
0.037924
0.039559
-0.011837
0.101133
-0.055834
-0.022727
0.011779
0.029531
0.038211
-0.142090
0.052876
-0.039105
0.161772
-0.038052
-0.001991
0.004634
-0.001790
0.089075
-0.009182
0.030749
0.030235
-0.071531
-0.012969
0.073878
0.132427
-0.187503
0.045845
-0.034727
0.045832
0.048518
-0.064350
0.065411
-0.006988
0.031521
-0.047648
-0.038100
0.036082
0.012952
0.086100
-0.077399
-0.034127
0.011506
-0.002009
0.037581
0.011177
0.007220
-0.093028
-0.056085
0.095220
0.022326
0.012828
-0.031047
-0.041593
-0.002247
-0.012123
0.029453
-0.039077
0.065394
0.022802
0.003332
0.018427
0.028557
0.051001
0.030468
-0.013296
-0.088290
0.078590
-0.180652
-0.036489
0.097280
-0.177364
0.015368
0.073650
-0.007256
0.033479
0.006157
-0.086381
0.068962
0.032003
0.008803
0.086789
0.030329
0.070303
0.102936
-0.011263
0.024746
-0.028573
-0.085862
0.088664
-0.059339
0.026822
0.017022
-0.005870
0.028204
-0.066565
-0.024964
-0.009990
0.059461
0.033871
-0.026660
-0.008815
-0.058071
0.064180
-0.111389
0.034521
0.002386
-0.085164
-0.079470
-0.047099
0.000018
-0.052167
-0.008818
0.056328
0.008456
-0.020119
-0.099621
0.016137
-0.035854
-0.009636
-0.044168
-0.002595
0.049020
0.006460
-0.053508
-0.159141
-0.001205
-0.046047
-0.038969
0.025599
-0.007492
-0.047327
0.015590
0.155022
-0.114486
0.009434
0.040795
-0.098809
-0.040292
0.017601
0.037317
0.003360
0.063483
-0.101864
-0.038366
0.052857
0.039922
-0.065567
-0.033744
-0.020562
-0.131933
-0.031132
-0.064571
0.003422
0.002701
-0.014547
0.034192
-0.081306
-0.037565
0.014714
0.028158
0.056297
0.040395
-0.120956
0.093223
0.020088
-0.090295
0.002318
0.040493
0.014406
0.034670
0.099708
-0.021826
-0.076153
-0.037118
0.009328
-0.067253
0.012955
-0.035859
-0.000090
-0.028952
-0.036005
-0.097957
-0.035040
0.002598
0.025202
0.051848
-0.033298
-0.091274
-0.018952
0.011527
-0.009615
0.044309
0.058571
-0.100744
-0.049735
-0.046899
-0.011813
-0.021730
0.012078
-0.015784
-0.108890
0.009594
0.034511
-0.049866
