-0.012995
0.001433
-0.012103
0.008992
-0.015529
0.035905
-0.002554
-0.030989
-0.068168
0.005455
-0.037603
-0.035017
0.036162
0.004357
-0.028049
0.012683
-0.013077
0.028358
-0.055302
0.054559
-0.069660
-0.020311
-0.037950
-0.154151
0.031072
0.067725
0.054919
0.015795
-0.090480
0.015232
0.026462
-0.148278
-0.039802
-0.050823
-0.065978
-0.021443
-0.038850
0.061339
-0.052692
-0.044321
-0.012224
-0.157834
-0.043272
-0.058379
0.014596
-0.020523
-0.046612
0.019054
-0.082965
0.055474
-0.045479
-0.047130
-0.016354
-0.107611
-0.003443
0.045772
-0.063379
-0.057616
-0.018790
0.003659
-0.098392
-0.012746
0.049740
-0.089311
-0.034366
-0.047904
-0.065161
-0.046594
-0.042310
-0.073693
-0.045559
0.020593
-0.010168
-0.097050
-0.070809
-0.054317
-0.074273
-0.004948
-0.051404
-0.013817
-0.043780
-0.008273
0.037541
0.033013
-0.040121
0.042400
-0.019927
-0.032039
0.013941
-0.018415
-0.030527
-0.082321
-0.047797
-0.125972
-0.045984
-0.001607
0.089062
-0.091586
0.042138
0.027665
-0.040688
-0.003356
-0.058696
-0.007977
0.013180
0.003200
-0.068294
-0.022041
0.046402
-0.020868
-0.045980
-0.071299
-0.036613
0.032702
-0.034185
-0.153526
-0.044671
-0.044092
-0.030558
0.024708
0.014175
-0.053396
-0.101609
0.028046
0.015543
0.009934
-0.036658
-0.020815
-0.023855
-0.120050
-0.020650
-0.073308
0.010884
-0.054492
-0.039479
-0.004908
-0.072246
-0.103909
-0.071029
-0.010247
-0.023531
-0.124225
-0.065474
-0.017484
-0.025765
0.056321
-0.054032
0.007040
-0.032913
0.016473
-0.103963
-0.022088
0.023883
-0.051768
0.031729
-0.042789
0.003203
0.001333
-0.008145
0.042154
-0.050315
-0.061696
-0.092145
-0.022371
0.020155
0.007109
-0.132050
0.018846
-0.075590
-0.075477
-0.152453
0.000021
-0.029646
-0.096451
-0.075794
0.047905
-0.038858
-0.004808
-0.041211
-0.028994
-0.040778
-0.079772
-0.035213
-0.091172
-0.066597
0.048217
0.063152
0.006177
-0.087380
-0.029087
-0.002556
-0.051299
-0.060278
-0.084942
-0.035205
-0.028632
0.045026
0.032537
-0.069932
-0.111071
0.024995
-0.034662
-0.146221
-0.026890
-0.028177
-0.019784
0.025049
-0.007820
-0.040571
-0.068885
-0.012762
-0.052857
0.057269
-0.058189
-0.016372
-0.009821
0.038842
-0.168443
-0.041365
-0.007040
-0.088390
-0.017786
-0.024921
-0.057413
0.057421
-0.024504
-0.023471
-0.031999
-0.082066
-0.087814
0.019917
0.006397
0.001439
-0.067551
-0.032672
-0.019396
-0.111012
-0.029694
0.043508
-0.103009
-0.006980
-0.100233
0.062335
0.059437
0.026827
-0.069894
-0.093803
-0.067450
-0.068068
-0.057663
-0.018273
-0.029469
-0.062476
-0.088131
-0.047506
-0.051575
