-0.011322
0.002913
-0.003426
-0.006592
-0.008084
-0.006121
-0.007198
-0.002781
-0.030202
0.014630
0.012765
0.027294
-0.011305
0.022016
-0.004733
-0.003509
-0.014071
0.010015
-0.017403
-0.026197
-0.019005
0.029722
-0.018028
0.037881
0.014957
-0.028865
0.006876
-0.030140
0.024747
0.018767
-0.047951
-0.028948
-0.013294
0.008219
0.008055
-0.024016
0.008883
-0.004199
-0.022618
-0.006786
-0.033645
-0.012719
-0.006106
-0.016668
0.015785
-0.025143
-0.013805
-0.012480
-0.012803
-0.002466
-0.008092
0.026965
-0.000974
0.003410
-0.017345
-0.042175
0.000165
0.037394
-0.007391
-0.022760
-0.012080
-0.067761
-0.011910
0.041051
-0.010368
0.019142
0.003125
-0.038054
0.007260
0.001263
-0.026536
-0.000998
-0.014969
0.014018
-0.003960
-0.010161
0.040348
0.005258
0.031400
-0.006431
-0.010427
-0.005897
0.016109
-0.002507
0.006385
-0.010351
-0.063197
-0.004039
-0.002877
-0.002761
0.000930
-0.040320
-0.027753
-0.008583
-0.033562
-0.000329
0.001506
0.004184
0.005049
-0.012334
-0.001423
0.015692
-0.036112
-0.005908
0.006732
-0.021124
-0.016072
-0.002009
0.017441
-0.000186
0.008590
0.025177
0.014952
-0.031309
-0.019318
-0.007271
-0.025809
0.020475
-0.022099
0.007874
-0.007389
-0.004245
-0.013945
-0.043447
0.004415
-0.009971
-0.008125
-0.004085
-0.017141
0.011481
0.002869
0.009787
-0.016117
0.005522
0.013706
-0.002336
-0.008892
-0.014340
-0.015004
0.011692
-0.025246
-0.016943
-0.033455
-0.005972
-0.004724
-0.007569
-0.027931
-0.024672
-0.005501
-0.010568
-0.008433
0.007235
-0.042183
-0.022106
-0.005960
-0.018307
-0.002610
0.008345
0.032698
-0.025687
-0.011609
0.001242
0.030514
-0.006506
-0.020713
0.027412
-0.030506
0.004509
0.005795
-0.006861
-0.002797
-0.007955
0.005622
0.005487
0.020118
0.010868
-0.003137
0.011694
0.010537
-0.017040
0.028641
0.029131
-0.028854
0.002339
0.001518
-0.010043
0.013342
0.013909
0.037664
-0.035961
0.010035
0.011490
-0.022895
-0.018307
-0.017635
-0.002226
0.012206
-0.023063
-0.002665
0.000430
-0.006729
0.010355
-0.000578
-0.042364
0.007802
-0.039925
-0.018000
0.010240
-0.000039
-0.017492
-0.001430
-0.031681
-0.005769
0.006313
-0.005286
-0.009875
0.005483
-0.020424
0.010764
-0.003908
0.005711
-0.000934
0.007725
-0.003510
0.007092
0.012570
-0.021522
-0.023640
0.013250
-0.009132
0.028635
-0.006080
-0.011671
-0.024545
0.012112
0.002637
-0.006902
-0.012596
0.008313
0.014081
0.009285
-0.011751
0.001400
-0.027656
0.003367
0.000251
-0.011306
0.008345
0.000609
-0.012267
-0.026467
-0.025951
-0.004773
0.002463
-0.013611
0.007513
0.021633
0.039293
0.011867
0.000841
0.006063
-0.041250
-0.004892
-0.027245
0.009851
0.024384
-0.023471
-0.055451
0.003661
0.017350
-0.013438
-0.004556
0.006282
-0.013482
0.000809
0.012763
-0.021149
-0.019089
-0.014833
-0.003886
0.014409
-0.007004
0.020247
0.036503
0.009305
0.033142
0.004563
0.025243
-0.043306
0.018440
-0.005898
-0.006668
-0.006997
0.010637
0.003293
-0.026888
-0.047789
-0.011306
0.016607
-0.010627
-0.006487
0.001316
0.025743
0.010408
-0.003908
-0.030612
0.008106
-0.019549
-0.013939
-0.017395
-0.002335
0.009137
0.044007
-0.021137
-0.036605
0.002542
0.007606
0.002468
-0.027660
0.003732
-0.007559
0.010183
-0.007292
-0.013186
-0.028400
0.007098
-0.012129
-0.024752
-0.031589
-0.024112
-0.014822
0.010389
0.007177
-0.008245
-0.021375
0.004953
-0.017835
-0.013830
-0.011203
0.000858
-0.011289
-0.010351
-0.040185
0.010178
0.016476
0.016326
-0.002918
-0.014374
0.011847
0.002882
0.017967
-0.003435
-0.010381
0.009734
-0.066558
-0.016400
0.009381
0.000785
-0.006388
-0.008591
-0.000875
-0.026367
0.018456
-0.035250
-0.000746
-0.018132
-0.076847
-0.016460
0.000669
0.000291
0.022040
-0.004521
-0.015096
0.006077
-0.013016
-0.022668
0.019906
-0.015257
-0.007167
-0.036813
0.001843
-0.000878
-0.012978
0.010725
-0.007436
-0.010625
0.020926
-0.007207
0.014447
0.009518
-0.019408
0.001004
0.014740
0.007831
0.017377
-0.025302
-0.006858
-0.008835
-0.015640
-0.011762
-0.005495
-0.033392
-0.023179
0.013086
-0.010972
0.008357
-0.018338
0.008340
0.023091
-0.010455
0.014874
0.009217
-0.013616
-0.001086
0.022020
-0.014515
-0.014360
0.023760
0.008761
0.001900
-0.015554
0.006834
-0.018710
-0.005514
0.027318
0.007548
0.027091
0.009946
0.009080
0.008716
0.004000
-0.014137
-0.007883
-0.026727
0.029532
-0.011866
-0.028054
-0.008931
-0.029345
-0.020660
-0.048588
-0.012402
-0.028572
-0.026430
0.022859
-0.014955
-0.023126
-0.026614
-0.004562
-0.043970
-0.025181
0.012090
0.012357
-0.012491
0.021928
0.009097
0.014746
-0.020690
-0.021875
0.005929
0.018827
-0.004536
0.027491
0.000827
0.005299
0.027438
0.018274
-0.017801
-0.021026
0.019550
-0.030366
-0.004353
-0.004985
-0.093502
0.007383
-0.007484
0.016184
-0.002300
0.011602
-0.027166
0.012072
0.038726
-0.018963
0.006933
-0.004320
-0.026348
0.007716
0.025355
-0.033032
-0.011221
0.020229
-0.013796
-0.013368
-0.010441
0.009290
0.022295
-0.005418
-0.009029
-0.016369
0.012580
0.015704
0.007415
-0.018216
0.002917
-0.014680
-0.010381
0.000572
-0.007909
-0.025657
-0.011126
-0.012368
-0.010750
