-0.056902
0.018375
0.004122
-0.029836
-0.005643
-0.037452
-0.005797
-0.026655
0.017359
0.020854
-0.044244
-0.031209
-0.073626
0.006041
-0.018155
-0.010472
-0.058090
0.017697
-0.030034
-0.017271
-0.042332
-0.027155
-0.063372
-0.060736
0.033447
-0.026478
-0.085761
-0.010753
-0.028043
-0.041402
-0.026417
-0.021007
0.016362
0.003242
0.046217
0.029797
0.027239
-0.015973
0.027851
0.003445
-0.096089
0.018256
0.020555
-0.063695
-0.053738
-0.016066
-0.012055
0.026331
-0.078270
-0.068712
0.031125
-0.001796
-0.032877
-0.080257
-0.034201
-0.029555
-0.012843
-0.029767
-0.067737
-0.093022
-0.036416
-0.040025
-0.054355
-0.021396
-0.019992
-0.083049
0.007624
-0.055425
-0.028325
-0.024980
-0.022964
0.023241
0.038614
-0.081533
-0.009140
-0.094715
-0.012522
-0.086881
-0.018817
-0.025644
-0.041942
0.007943
-0.075686
0.015368
-0.078310
-0.040676
-0.022559
-0.042174
-0.081829
-0.059114
-0.030039
-0.058808
-0.005315
-0.039671
0.022466
-0.012699
0.009145
-0.029798
-0.048436
0.005410
0.003454
-0.003768
-0.061993
-0.010748
-0.004502
-0.129755
-0.043900
-0.083583
-0.046857
0.025225
-0.052743
0.002187
-0.053877
-0.056527
-0.027881
-0.011122
-0.034462
0.009414
-0.027900
-0.040874
-0.002092
0.024858
-0.036874
0.000027
-0.043067
-0.016150
-0.076681
-0.051669
-0.015965
-0.030768
-0.065104
-0.063714
-0.076504
-0.022816
-0.066047
0.000258
0.016248
0.003052
-0.029073
-0.020343
-0.023980
-0.041132
0.039849
-0.032109
-0.022632
0.002123
0.009427
-0.047696
-0.085605
0.003366
-0.054135
-0.066538
-0.011782
-0.032695
-0.057944
-0.029059
-0.051033
0.032610
-0.052195
-0.008406
-0.006628
-0.040432
-0.087373
-0.030955
0.007232
-0.012718
-0.002064
-0.075847
0.003411
0.022519
0.004681
-0.020604
0.033603
0.022380
-0.039158
-0.011116
-0.056823
-0.018484
-0.107210
-0.057990
-0.085097
-0.004583
-0.003397
-0.024757
0.007735
0.012979
-0.045373
-0.036178
-0.019528
-0.000962
-0.031953
-0.036215
-0.037102
-0.041876
-0.063776
-0.052611
-0.040825
-0.021997
-0.008480
0.017971
-0.034484
0.025782
-0.002902
-0.006575
0.006709
-0.045492
-0.000392
-0.039377
-0.063121
-0.034660
-0.017523
-0.022336
0.000975
0.012382
0.021032
-0.049647
-0.004891
0.013199
-0.024635
-0.055280
-0.091902
-0.020140
-0.054153
-0.102932
-0.075982
-0.011843
-0.061615
-0.042963
-0.082144
0.017614
-0.063673
0.006020
-0.053117
0.025161
-0.065205
-0.005636
0.028714
0.022920
-0.019584
-0.084348
-0.020111
-0.033869
-0.017423
-0.054075
-0.014737
-0.047191
0.022868
0.017418
-0.053786
-0.020961
0.036660
0.026641
-0.066940
-0.021795
-0.036632
-0.009045
